digraph Tree {
node [shape=box] ;
0 [label="X[5] <= 1.5\ngini = 0.345\nsamples = 21000\nvalue = [16355, 4645]"] ;
1 [label="X[6] <= 1.5\ngini = 0.276\nsamples = 18814\nvalue = [15699, 3115]"] ;
0 -> 1 [labeldistance=2.5, labelangle=45, headlabel="True"] ;
2 [label="X[19] <= 810.5\ngini = 0.244\nsamples = 17223\nvalue = [14769, 2454]"] ;
1 -> 2 ;
3 [label="X[11] <= 881.0\ngini = 0.332\nsamples = 5069\nvalue = [4004, 1065]"] ;
2 -> 3 ;
4 [label="X[4] <= 45.5\ngini = 0.39\nsamples = 2130\nvalue = [1565, 565]"] ;
3 -> 4 ;
5 [label="X[16] <= -194.5\ngini = 0.37\nsamples = 1770\nvalue = [1336, 434]"] ;
4 -> 5 ;
6 [label="X[4] <= 25.5\ngini = 0.5\nsamples = 47\nvalue = [24, 23]"] ;
5 -> 6 ;
7 [label="gini = 0.0\nsamples = 7\nvalue = [0, 7]"] ;
6 -> 7 ;
8 [label="X[15] <= -318.0\ngini = 0.48\nsamples = 40\nvalue = [24, 16]"] ;
6 -> 8 ;
9 [label="X[22] <= 374.0\ngini = 0.298\nsamples = 22\nvalue = [18, 4]"] ;
8 -> 9 ;
10 [label="X[16] <= -52842.5\ngini = 0.188\nsamples = 19\nvalue = [17, 2]"] ;
9 -> 10 ;
11 [label="gini = 0.0\nsamples = 1\nvalue = [0, 1]"] ;
10 -> 11 ;
12 [label="X[2] <= 2.5\ngini = 0.105\nsamples = 18\nvalue = [17, 1]"] ;
10 -> 12 ;
13 [label="gini = 0.0\nsamples = 16\nvalue = [16, 0]"] ;
12 -> 13 ;
14 [label="X[12] <= -203.0\ngini = 0.5\nsamples = 2\nvalue = [1, 1]"] ;
12 -> 14 ;
15 [label="gini = 0.0\nsamples = 1\nvalue = [0, 1]"] ;
14 -> 15 ;
16 [label="gini = 0.0\nsamples = 1\nvalue = [1, 0]"] ;
14 -> 16 ;
17 [label="X[13] <= 1420.5\ngini = 0.444\nsamples = 3\nvalue = [1, 2]"] ;
9 -> 17 ;
18 [label="gini = 0.0\nsamples = 2\nvalue = [0, 2]"] ;
17 -> 18 ;
19 [label="gini = 0.0\nsamples = 1\nvalue = [1, 0]"] ;
17 -> 19 ;
20 [label="X[22] <= 77.0\ngini = 0.444\nsamples = 18\nvalue = [6, 12]"] ;
8 -> 20 ;
21 [label="gini = 0.0\nsamples = 9\nvalue = [0, 9]"] ;
20 -> 21 ;
22 [label="X[22] <= 4450.0\ngini = 0.444\nsamples = 9\nvalue = [6, 3]"] ;
20 -> 22 ;
23 [label="X[14] <= -293.0\ngini = 0.245\nsamples = 7\nvalue = [6, 1]"] ;
22 -> 23 ;
24 [label="gini = 0.0\nsamples = 1\nvalue = [0, 1]"] ;
23 -> 24 ;
25 [label="gini = 0.0\nsamples = 6\nvalue = [6, 0]"] ;
23 -> 25 ;
26 [label="gini = 0.0\nsamples = 2\nvalue = [0, 2]"] ;
22 -> 26 ;
27 [label="X[22] <= 1199.0\ngini = 0.363\nsamples = 1723\nvalue = [1312, 411]"] ;
5 -> 27 ;
28 [label="X[12] <= -0.5\ngini = 0.38\nsamples = 1449\nvalue = [1079, 370]"] ;
27 -> 28 ;
29 [label="X[13] <= -953.0\ngini = 0.206\nsamples = 86\nvalue = [76, 10]"] ;
28 -> 29 ;
30 [label="gini = 0.0\nsamples = 1\nvalue = [0, 1]"] ;
29 -> 30 ;
31 [label="X[15] <= -13.5\ngini = 0.189\nsamples = 85\nvalue = [76, 9]"] ;
29 -> 31 ;
32 [label="X[4] <= 34.5\ngini = 0.366\nsamples = 29\nvalue = [22, 7]"] ;
31 -> 32 ;
33 [label="gini = 0.0\nsamples = 11\nvalue = [11, 0]"] ;
32 -> 33 ;
34 [label="X[4] <= 43.5\ngini = 0.475\nsamples = 18\nvalue = [11, 7]"] ;
32 -> 34 ;
35 [label="X[4] <= 41.0\ngini = 0.498\nsamples = 15\nvalue = [8, 7]"] ;
34 -> 35 ;
36 [label="X[6] <= -1.5\ngini = 0.444\nsamples = 12\nvalue = [8, 4]"] ;
35 -> 36 ;
37 [label="X[17] <= 9.0\ngini = 0.397\nsamples = 11\nvalue = [8, 3]"] ;
36 -> 37 ;
38 [label="X[15] <= -115.5\ngini = 0.32\nsamples = 10\nvalue = [8, 2]"] ;
37 -> 38 ;
39 [label="X[2] <= 1.5\ngini = 0.5\nsamples = 2\nvalue = [1, 1]"] ;
38 -> 39 ;
40 [label="gini = 0.0\nsamples = 1\nvalue = [1, 0]"] ;
39 -> 40 ;
41 [label="gini = 0.0\nsamples = 1\nvalue = [0, 1]"] ;
39 -> 41 ;
42 [label="X[4] <= 35.5\ngini = 0.219\nsamples = 8\nvalue = [7, 1]"] ;
38 -> 42 ;
43 [label="X[0] <= 195000.0\ngini = 0.5\nsamples = 2\nvalue = [1, 1]"] ;
42 -> 43 ;
44 [label="gini = 0.0\nsamples = 1\nvalue = [0, 1]"] ;
43 -> 44 ;
45 [label="gini = 0.0\nsamples = 1\nvalue = [1, 0]"] ;
43 -> 45 ;
46 [label="gini = 0.0\nsamples = 6\nvalue = [6, 0]"] ;
42 -> 46 ;
47 [label="gini = 0.0\nsamples = 1\nvalue = [0, 1]"] ;
37 -> 47 ;
48 [label="gini = 0.0\nsamples = 1\nvalue = [0, 1]"] ;
36 -> 48 ;
49 [label="gini = 0.0\nsamples = 3\nvalue = [0, 3]"] ;
35 -> 49 ;
50 [label="gini = 0.0\nsamples = 3\nvalue = [3, 0]"] ;
34 -> 50 ;
51 [label="X[22] <= 747.5\ngini = 0.069\nsamples = 56\nvalue = [54, 2]"] ;
31 -> 51 ;
52 [label="gini = 0.0\nsamples = 50\nvalue = [50, 0]"] ;
51 -> 52 ;
53 [label="X[19] <= 35.0\ngini = 0.444\nsamples = 6\nvalue = [4, 2]"] ;
51 -> 53 ;
54 [label="gini = 0.0\nsamples = 4\nvalue = [4, 0]"] ;
53 -> 54 ;
55 [label="gini = 0.0\nsamples = 2\nvalue = [0, 2]"] ;
53 -> 55 ;
56 [label="X[0] <= 25000.0\ngini = 0.389\nsamples = 1363\nvalue = [1003, 360]"] ;
28 -> 56 ;
57 [label="X[19] <= 322.5\ngini = 0.482\nsamples = 79\nvalue = [47, 32]"] ;
56 -> 57 ;
58 [label="X[21] <= 745.0\ngini = 0.499\nsamples = 56\nvalue = [27, 29]"] ;
57 -> 58 ;
59 [label="X[20] <= 395.0\ngini = 0.494\nsamples = 47\nvalue = [26, 21]"] ;
58 -> 59 ;
60 [label="X[12] <= 1614.0\ngini = 0.5\nsamples = 39\nvalue = [19, 20]"] ;
59 -> 60 ;
61 [label="X[16] <= 120.0\ngini = 0.498\nsamples = 36\nvalue = [19, 17]"] ;
60 -> 61 ;
62 [label="X[6] <= -1.5\ngini = 0.489\nsamples = 33\nvalue = [19, 14]"] ;
61 -> 62 ;
63 [label="X[0] <= 15000.0\ngini = 0.499\nsamples = 23\nvalue = [11, 12]"] ;
62 -> 63 ;
64 [label="gini = 0.0\nsamples = 6\nvalue = [6, 0]"] ;
63 -> 64 ;
65 [label="X[4] <= 29.5\ngini = 0.415\nsamples = 17\nvalue = [5, 12]"] ;
63 -> 65 ;
66 [label="X[4] <= 27.5\ngini = 0.5\nsamples = 8\nvalue = [4, 4]"] ;
65 -> 66 ;
67 [label="X[4] <= 24.0\ngini = 0.444\nsamples = 6\nvalue = [2, 4]"] ;
66 -> 67 ;
68 [label="X[3] <= 1.5\ngini = 0.444\nsamples = 3\nvalue = [2, 1]"] ;
67 -> 68 ;
69 [label="gini = 0.0\nsamples = 1\nvalue = [0, 1]"] ;
68 -> 69 ;
70 [label="gini = 0.0\nsamples = 2\nvalue = [2, 0]"] ;
68 -> 70 ;
71 [label="gini = 0.0\nsamples = 3\nvalue = [0, 3]"] ;
67 -> 71 ;
72 [label="gini = 0.0\nsamples = 2\nvalue = [2, 0]"] ;
66 -> 72 ;
73 [label="X[17] <= 746.0\ngini = 0.198\nsamples = 9\nvalue = [1, 8]"] ;
65 -> 73 ;
74 [label="gini = 0.0\nsamples = 8\nvalue = [0, 8]"] ;
73 -> 74 ;
75 [label="gini = 0.0\nsamples = 1\nvalue = [1, 0]"] ;
73 -> 75 ;
76 [label="X[11] <= 444.5\ngini = 0.32\nsamples = 10\nvalue = [8, 2]"] ;
62 -> 76 ;
77 [label="gini = 0.0\nsamples = 7\nvalue = [7, 0]"] ;
76 -> 77 ;
78 [label="X[2] <= 2.5\ngini = 0.444\nsamples = 3\nvalue = [1, 2]"] ;
76 -> 78 ;
79 [label="gini = 0.0\nsamples = 2\nvalue = [0, 2]"] ;
78 -> 79 ;
80 [label="gini = 0.0\nsamples = 1\nvalue = [1, 0]"] ;
78 -> 80 ;
81 [label="gini = 0.0\nsamples = 3\nvalue = [0, 3]"] ;
61 -> 81 ;
82 [label="gini = 0.0\nsamples = 3\nvalue = [0, 3]"] ;
60 -> 82 ;
83 [label="X[11] <= 765.0\ngini = 0.219\nsamples = 8\nvalue = [7, 1]"] ;
59 -> 83 ;
84 [label="gini = 0.0\nsamples = 7\nvalue = [7, 0]"] ;
83 -> 84 ;
85 [label="gini = 0.0\nsamples = 1\nvalue = [0, 1]"] ;
83 -> 85 ;
86 [label="X[14] <= -0.5\ngini = 0.198\nsamples = 9\nvalue = [1, 8]"] ;
58 -> 86 ;
87 [label="gini = 0.0\nsamples = 1\nvalue = [1, 0]"] ;
86 -> 87 ;
88 [label="gini = 0.0\nsamples = 8\nvalue = [0, 8]"] ;
86 -> 88 ;
89 [label="X[7] <= 1.0\ngini = 0.227\nsamples = 23\nvalue = [20, 3]"] ;
57 -> 89 ;
90 [label="X[9] <= 1.0\ngini = 0.165\nsamples = 22\nvalue = [20, 2]"] ;
89 -> 90 ;
91 [label="X[11] <= 403.0\ngini = 0.091\nsamples = 21\nvalue = [20, 1]"] ;
90 -> 91 ;
92 [label="gini = 0.0\nsamples = 16\nvalue = [16, 0]"] ;
91 -> 92 ;
93 [label="X[22] <= 150.0\ngini = 0.32\nsamples = 5\nvalue = [4, 1]"] ;
91 -> 93 ;
94 [label="gini = 0.0\nsamples = 1\nvalue = [0, 1]"] ;
93 -> 94 ;
95 [label="gini = 0.0\nsamples = 4\nvalue = [4, 0]"] ;
93 -> 95 ;
96 [label="gini = 0.0\nsamples = 1\nvalue = [0, 1]"] ;
90 -> 96 ;
97 [label="gini = 0.0\nsamples = 1\nvalue = [0, 1]"] ;
89 -> 97 ;
98 [label="X[0] <= 295000.0\ngini = 0.38\nsamples = 1284\nvalue = [956, 328]"] ;
56 -> 98 ;
99 [label="X[5] <= -1.5\ngini = 0.358\nsamples = 1000\nvalue = [766, 234]"] ;
98 -> 99 ;
100 [label="X[0] <= 95000.0\ngini = 0.286\nsamples = 289\nvalue = [239, 50]"] ;
99 -> 100 ;
101 [label="X[11] <= 698.0\ngini = 0.077\nsamples = 50\nvalue = [48, 2]"] ;
100 -> 101 ;
102 [label="gini = 0.0\nsamples = 44\nvalue = [44, 0]"] ;
101 -> 102 ;
103 [label="X[11] <= 793.5\ngini = 0.444\nsamples = 6\nvalue = [4, 2]"] ;
101 -> 103 ;
104 [label="X[19] <= 195.0\ngini = 0.444\nsamples = 3\nvalue = [1, 2]"] ;
103 -> 104 ;
105 [label="gini = 0.0\nsamples = 1\nvalue = [1, 0]"] ;
104 -> 105 ;
106 [label="gini = 0.0\nsamples = 2\nvalue = [0, 2]"] ;
104 -> 106 ;
107 [label="gini = 0.0\nsamples = 3\nvalue = [3, 0]"] ;
103 -> 107 ;
108 [label="X[22] <= 1055.0\ngini = 0.321\nsamples = 239\nvalue = [191, 48]"] ;
100 -> 108 ;
109 [label="X[11] <= 455.5\ngini = 0.317\nsamples = 238\nvalue = [191, 47]"] ;
108 -> 109 ;
110 [label="X[11] <= 440.0\ngini = 0.336\nsamples = 211\nvalue = [166, 45]"] ;
109 -> 110 ;
111 [label="X[15] <= 456.0\ngini = 0.331\nsamples = 210\nvalue = [166, 44]"] ;
110 -> 111 ;
112 [label="X[20] <= 427.5\ngini = 0.353\nsamples = 179\nvalue = [138, 41]"] ;
111 -> 112 ;
113 [label="X[16] <= 6947.5\ngini = 0.344\nsamples = 177\nvalue = [138, 39]"] ;
112 -> 113 ;
114 [label="X[3] <= 0.5\ngini = 0.339\nsamples = 176\nvalue = [138, 38]"] ;
113 -> 114 ;
115 [label="gini = 0.0\nsamples = 1\nvalue = [0, 1]"] ;
114 -> 115 ;
116 [label="X[18] <= 16669.0\ngini = 0.333\nsamples = 175\nvalue = [138, 37]"] ;
114 -> 116 ;
117 [label="X[13] <= 769.0\ngini = 0.328\nsamples = 174\nvalue = [138, 36]"] ;
116 -> 117 ;
118 [label="X[18] <= 629.0\ngini = 0.356\nsamples = 151\nvalue = [116, 35]"] ;
117 -> 118 ;
119 [label="X[15] <= 50.0\ngini = 0.327\nsamples = 146\nvalue = [116, 30]"] ;
118 -> 119 ;
120 [label="X[4] <= 38.5\ngini = 0.373\nsamples = 121\nvalue = [91, 30]"] ;
119 -> 120 ;
121 [label="X[12] <= 195.0\ngini = 0.323\nsamples = 94\nvalue = [75, 19]"] ;
120 -> 121 ;
122 [label="X[4] <= 25.5\ngini = 0.341\nsamples = 87\nvalue = [68, 19]"] ;
121 -> 122 ;
123 [label="gini = 0.0\nsamples = 7\nvalue = [7, 0]"] ;
122 -> 123 ;
124 [label="X[4] <= 29.5\ngini = 0.362\nsamples = 80\nvalue = [61, 19]"] ;
122 -> 124 ;
125 [label="X[2] <= 1.5\ngini = 0.452\nsamples = 29\nvalue = [19, 10]"] ;
124 -> 125 ;
126 [label="X[0] <= 190000.0\ngini = 0.494\nsamples = 18\nvalue = [10, 8]"] ;
125 -> 126 ;
127 [label="X[0] <= 175000.0\ngini = 0.426\nsamples = 13\nvalue = [9, 4]"] ;
126 -> 127 ;
128 [label="X[0] <= 110000.0\ngini = 0.494\nsamples = 9\nvalue = [5, 4]"] ;
127 -> 128 ;
129 [label="gini = 0.0\nsamples = 1\nvalue = [0, 1]"] ;
128 -> 129 ;
130 [label="X[0] <= 160000.0\ngini = 0.469\nsamples = 8\nvalue = [5, 3]"] ;
128 -> 130 ;
131 [label="X[4] <= 27.5\ngini = 0.408\nsamples = 7\nvalue = [5, 2]"] ;
130 -> 131 ;
132 [label="X[4] <= 26.5\ngini = 0.5\nsamples = 2\nvalue = [1, 1]"] ;
131 -> 132 ;
133 [label="gini = 0.0\nsamples = 1\nvalue = [1, 0]"] ;
132 -> 133 ;
134 [label="gini = 0.0\nsamples = 1\nvalue = [0, 1]"] ;
132 -> 134 ;
135 [label="X[0] <= 145000.0\ngini = 0.32\nsamples = 5\nvalue = [4, 1]"] ;
131 -> 135 ;
136 [label="X[0] <= 130000.0\ngini = 0.5\nsamples = 2\nvalue = [1, 1]"] ;
135 -> 136 ;
137 [label="gini = 0.0\nsamples = 1\nvalue = [1, 0]"] ;
136 -> 137 ;
138 [label="gini = 0.0\nsamples = 1\nvalue = [0, 1]"] ;
136 -> 138 ;
139 [label="gini = 0.0\nsamples = 3\nvalue = [3, 0]"] ;
135 -> 139 ;
140 [label="gini = 0.0\nsamples = 1\nvalue = [0, 1]"] ;
130 -> 140 ;
141 [label="gini = 0.0\nsamples = 4\nvalue = [4, 0]"] ;
127 -> 141 ;
142 [label="X[22] <= 255.0\ngini = 0.32\nsamples = 5\nvalue = [1, 4]"] ;
126 -> 142 ;
143 [label="gini = 0.0\nsamples = 4\nvalue = [0, 4]"] ;
142 -> 143 ;
144 [label="gini = 0.0\nsamples = 1\nvalue = [1, 0]"] ;
142 -> 144 ;
145 [label="X[4] <= 28.5\ngini = 0.298\nsamples = 11\nvalue = [9, 2]"] ;
125 -> 145 ;
146 [label="X[0] <= 215000.0\ngini = 0.375\nsamples = 8\nvalue = [6, 2]"] ;
145 -> 146 ;
147 [label="X[3] <= 1.5\ngini = 0.278\nsamples = 6\nvalue = [5, 1]"] ;
146 -> 147 ;
148 [label="gini = 0.0\nsamples = 1\nvalue = [0, 1]"] ;
147 -> 148 ;
149 [label="gini = 0.0\nsamples = 5\nvalue = [5, 0]"] ;
147 -> 149 ;
150 [label="X[3] <= 1.5\ngini = 0.5\nsamples = 2\nvalue = [1, 1]"] ;
146 -> 150 ;
151 [label="gini = 0.0\nsamples = 1\nvalue = [1, 0]"] ;
150 -> 151 ;
152 [label="gini = 0.0\nsamples = 1\nvalue = [0, 1]"] ;
150 -> 152 ;
153 [label="gini = 0.0\nsamples = 3\nvalue = [3, 0]"] ;
145 -> 153 ;
154 [label="X[4] <= 33.5\ngini = 0.291\nsamples = 51\nvalue = [42, 9]"] ;
124 -> 154 ;
155 [label="X[16] <= 1136.0\ngini = 0.087\nsamples = 22\nvalue = [21, 1]"] ;
154 -> 155 ;
156 [label="gini = 0.0\nsamples = 21\nvalue = [21, 0]"] ;
155 -> 156 ;
157 [label="gini = 0.0\nsamples = 1\nvalue = [0, 1]"] ;
155 -> 157 ;
158 [label="X[2] <= 2.5\ngini = 0.4\nsamples = 29\nvalue = [21, 8]"] ;
154 -> 158 ;
159 [label="X[0] <= 205000.0\ngini = 0.355\nsamples = 26\nvalue = [20, 6]"] ;
158 -> 159 ;
160 [label="X[0] <= 190000.0\ngini = 0.459\nsamples = 14\nvalue = [9, 5]"] ;
159 -> 160 ;
161 [label="X[10] <= -1.5\ngini = 0.346\nsamples = 9\nvalue = [7, 2]"] ;
160 -> 161 ;
162 [label="X[4] <= 34.5\ngini = 0.219\nsamples = 8\nvalue = [7, 1]"] ;
161 -> 162 ;
163 [label="X[16] <= 750.0\ngini = 0.5\nsamples = 2\nvalue = [1, 1]"] ;
162 -> 163 ;
164 [label="gini = 0.0\nsamples = 1\nvalue = [0, 1]"] ;
163 -> 164 ;
165 [label="gini = 0.0\nsamples = 1\nvalue = [1, 0]"] ;
163 -> 165 ;
166 [label="gini = 0.0\nsamples = 6\nvalue = [6, 0]"] ;
162 -> 166 ;
167 [label="gini = 0.0\nsamples = 1\nvalue = [0, 1]"] ;
161 -> 167 ;
168 [label="X[1] <= 1.5\ngini = 0.48\nsamples = 5\nvalue = [2, 3]"] ;
160 -> 168 ;
169 [label="X[3] <= 1.5\ngini = 0.5\nsamples = 2\nvalue = [1, 1]"] ;
168 -> 169 ;
170 [label="gini = 0.0\nsamples = 1\nvalue = [0, 1]"] ;
169 -> 170 ;
171 [label="gini = 0.0\nsamples = 1\nvalue = [1, 0]"] ;
169 -> 171 ;
172 [label="X[3] <= 1.5\ngini = 0.444\nsamples = 3\nvalue = [1, 2]"] ;
168 -> 172 ;
173 [label="gini = 0.0\nsamples = 1\nvalue = [1, 0]"] ;
172 -> 173 ;
174 [label="gini = 0.0\nsamples = 2\nvalue = [0, 2]"] ;
172 -> 174 ;
175 [label="X[2] <= 1.5\ngini = 0.153\nsamples = 12\nvalue = [11, 1]"] ;
159 -> 175 ;
176 [label="gini = 0.0\nsamples = 7\nvalue = [7, 0]"] ;
175 -> 176 ;
177 [label="X[3] <= 1.5\ngini = 0.32\nsamples = 5\nvalue = [4, 1]"] ;
175 -> 177 ;
178 [label="gini = 0.0\nsamples = 2\nvalue = [2, 0]"] ;
177 -> 178 ;
179 [label="X[4] <= 36.0\ngini = 0.444\nsamples = 3\nvalue = [2, 1]"] ;
177 -> 179 ;
180 [label="X[0] <= 235000.0\ngini = 0.5\nsamples = 2\nvalue = [1, 1]"] ;
179 -> 180 ;
181 [label="gini = 0.0\nsamples = 1\nvalue = [0, 1]"] ;
180 -> 181 ;
182 [label="gini = 0.0\nsamples = 1\nvalue = [1, 0]"] ;
180 -> 182 ;
183 [label="gini = 0.0\nsamples = 1\nvalue = [1, 0]"] ;
179 -> 183 ;
184 [label="X[4] <= 37.5\ngini = 0.444\nsamples = 3\nvalue = [1, 2]"] ;
158 -> 184 ;
185 [label="gini = 0.0\nsamples = 2\nvalue = [0, 2]"] ;
184 -> 185 ;
186 [label="gini = 0.0\nsamples = 1\nvalue = [1, 0]"] ;
184 -> 186 ;
187 [label="gini = 0.0\nsamples = 7\nvalue = [7, 0]"] ;
121 -> 187 ;
188 [label="X[4] <= 42.5\ngini = 0.483\nsamples = 27\nvalue = [16, 11]"] ;
120 -> 188 ;
189 [label="X[3] <= 1.5\ngini = 0.49\nsamples = 14\nvalue = [6, 8]"] ;
188 -> 189 ;
190 [label="X[0] <= 235000.0\ngini = 0.496\nsamples = 11\nvalue = [6, 5]"] ;
189 -> 190 ;
191 [label="X[4] <= 39.5\ngini = 0.444\nsamples = 9\nvalue = [6, 3]"] ;
190 -> 191 ;
192 [label="gini = 0.0\nsamples = 1\nvalue = [0, 1]"] ;
191 -> 192 ;
193 [label="X[0] <= 125000.0\ngini = 0.375\nsamples = 8\nvalue = [6, 2]"] ;
191 -> 193 ;
194 [label="gini = 0.0\nsamples = 1\nvalue = [0, 1]"] ;
193 -> 194 ;
195 [label="X[4] <= 41.5\ngini = 0.245\nsamples = 7\nvalue = [6, 1]"] ;
193 -> 195 ;
196 [label="gini = 0.0\nsamples = 5\nvalue = [5, 0]"] ;
195 -> 196 ;
197 [label="X[2] <= 1.5\ngini = 0.5\nsamples = 2\nvalue = [1, 1]"] ;
195 -> 197 ;
198 [label="gini = 0.0\nsamples = 1\nvalue = [1, 0]"] ;
197 -> 198 ;
199 [label="gini = 0.0\nsamples = 1\nvalue = [0, 1]"] ;
197 -> 199 ;
200 [label="gini = 0.0\nsamples = 2\nvalue = [0, 2]"] ;
190 -> 200 ;
201 [label="gini = 0.0\nsamples = 3\nvalue = [0, 3]"] ;
189 -> 201 ;
202 [label="X[12] <= 622.0\ngini = 0.355\nsamples = 13\nvalue = [10, 3]"] ;
188 -> 202 ;
203 [label="X[0] <= 260000.0\ngini = 0.18\nsamples = 10\nvalue = [9, 1]"] ;
202 -> 203 ;
204 [label="gini = 0.0\nsamples = 8\nvalue = [8, 0]"] ;
203 -> 204 ;
205 [label="X[3] <= 1.5\ngini = 0.5\nsamples = 2\nvalue = [1, 1]"] ;
203 -> 205 ;
206 [label="gini = 0.0\nsamples = 1\nvalue = [0, 1]"] ;
205 -> 206 ;
207 [label="gini = 0.0\nsamples = 1\nvalue = [1, 0]"] ;
205 -> 207 ;
208 [label="X[16] <= 1103.0\ngini = 0.444\nsamples = 3\nvalue = [1, 2]"] ;
202 -> 208 ;
209 [label="gini = 0.0\nsamples = 2\nvalue = [0, 2]"] ;
208 -> 209 ;
210 [label="gini = 0.0\nsamples = 1\nvalue = [1, 0]"] ;
208 -> 210 ;
211 [label="gini = 0.0\nsamples = 25\nvalue = [25, 0]"] ;
119 -> 211 ;
212 [label="gini = 0.0\nsamples = 5\nvalue = [0, 5]"] ;
118 -> 212 ;
213 [label="X[11] <= 103.5\ngini = 0.083\nsamples = 23\nvalue = [22, 1]"] ;
117 -> 213 ;
214 [label="gini = 0.0\nsamples = 20\nvalue = [20, 0]"] ;
213 -> 214 ;
215 [label="X[12] <= 1063.5\ngini = 0.444\nsamples = 3\nvalue = [2, 1]"] ;
213 -> 215 ;
216 [label="gini = 0.0\nsamples = 1\nvalue = [0, 1]"] ;
215 -> 216 ;
217 [label="gini = 0.0\nsamples = 2\nvalue = [2, 0]"] ;
215 -> 217 ;
218 [label="gini = 0.0\nsamples = 1\nvalue = [0, 1]"] ;
116 -> 218 ;
219 [label="gini = 0.0\nsamples = 1\nvalue = [0, 1]"] ;
113 -> 219 ;
220 [label="gini = 0.0\nsamples = 2\nvalue = [0, 2]"] ;
112 -> 220 ;
221 [label="X[19] <= 758.5\ngini = 0.175\nsamples = 31\nvalue = [28, 3]"] ;
111 -> 221 ;
222 [label="X[3] <= 1.5\ngini = 0.124\nsamples = 30\nvalue = [28, 2]"] ;
221 -> 222 ;
223 [label="X[17] <= 5890.5\ngini = 0.346\nsamples = 9\nvalue = [7, 2]"] ;
222 -> 223 ;
224 [label="X[4] <= 41.5\ngini = 0.219\nsamples = 8\nvalue = [7, 1]"] ;
223 -> 224 ;
225 [label="gini = 0.0\nsamples = 6\nvalue = [6, 0]"] ;
224 -> 225 ;
226 [label="X[3] <= 0.5\ngini = 0.5\nsamples = 2\nvalue = [1, 1]"] ;
224 -> 226 ;
227 [label="gini = 0.0\nsamples = 1\nvalue = [1, 0]"] ;
226 -> 227 ;
228 [label="gini = 0.0\nsamples = 1\nvalue = [0, 1]"] ;
226 -> 228 ;
229 [label="gini = 0.0\nsamples = 1\nvalue = [0, 1]"] ;
223 -> 229 ;
230 [label="gini = 0.0\nsamples = 21\nvalue = [21, 0]"] ;
222 -> 230 ;
231 [label="gini = 0.0\nsamples = 1\nvalue = [0, 1]"] ;
221 -> 231 ;
232 [label="gini = 0.0\nsamples = 1\nvalue = [0, 1]"] ;
110 -> 232 ;
233 [label="X[18] <= 2316.5\ngini = 0.137\nsamples = 27\nvalue = [25, 2]"] ;
109 -> 233 ;
234 [label="X[22] <= 683.0\ngini = 0.074\nsamples = 26\nvalue = [25, 1]"] ;
233 -> 234 ;
235 [label="gini = 0.0\nsamples = 24\nvalue = [24, 0]"] ;
234 -> 235 ;
236 [label="X[3] <= 1.5\ngini = 0.5\nsamples = 2\nvalue = [1, 1]"] ;
234 -> 236 ;
237 [label="gini = 0.0\nsamples = 1\nvalue = [1, 0]"] ;
236 -> 237 ;
238 [label="gini = 0.0\nsamples = 1\nvalue = [0, 1]"] ;
236 -> 238 ;
239 [label="gini = 0.0\nsamples = 1\nvalue = [0, 1]"] ;
233 -> 239 ;
240 [label="gini = 0.0\nsamples = 1\nvalue = [0, 1]"] ;
108 -> 240 ;
241 [label="X[15] <= -0.5\ngini = 0.384\nsamples = 711\nvalue = [527, 184]"] ;
99 -> 241 ;
242 [label="X[16] <= -84.0\ngini = 0.397\nsamples = 11\nvalue = [3, 8]"] ;
241 -> 242 ;
243 [label="gini = 0.0\nsamples = 2\nvalue = [2, 0]"] ;
242 -> 243 ;
244 [label="X[14] <= -163.5\ngini = 0.198\nsamples = 9\nvalue = [1, 8]"] ;
242 -> 244 ;
245 [label="gini = 0.0\nsamples = 1\nvalue = [1, 0]"] ;
244 -> 245 ;
246 [label="gini = 0.0\nsamples = 8\nvalue = [0, 8]"] ;
244 -> 246 ;
247 [label="X[22] <= 1185.0\ngini = 0.376\nsamples = 700\nvalue = [524, 176]"] ;
241 -> 247 ;
248 [label="X[22] <= 815.5\ngini = 0.374\nsamples = 698\nvalue = [524, 174]"] ;
247 -> 248 ;
249 [label="X[22] <= 791.0\ngini = 0.383\nsamples = 650\nvalue = [482, 168]"] ;
248 -> 249 ;
250 [label="X[9] <= -0.5\ngini = 0.379\nsamples = 646\nvalue = [482, 164]"] ;
249 -> 250 ;
251 [label="X[4] <= 42.5\ngini = 0.369\nsamples = 597\nvalue = [451, 146]"] ;
250 -> 251 ;
252 [label="X[19] <= 788.5\ngini = 0.357\nsamples = 534\nvalue = [410, 124]"] ;
251 -> 252 ;
253 [label="X[11] <= 856.5\ngini = 0.355\nsamples = 533\nvalue = [410, 123]"] ;
252 -> 253 ;
254 [label="X[13] <= 16993.5\ngini = 0.353\nsamples = 532\nvalue = [410, 122]"] ;
253 -> 254 ;
255 [label="X[11] <= 505.5\ngini = 0.351\nsamples = 529\nvalue = [409, 120]"] ;
254 -> 255 ;
256 [label="X[10] <= 2.5\ngini = 0.362\nsamples = 477\nvalue = [364, 113]"] ;
255 -> 256 ;
257 [label="X[11] <= 499.5\ngini = 0.36\nsamples = 476\nvalue = [364, 112]"] ;
256 -> 257 ;
258 [label="X[19] <= 393.0\ngini = 0.357\nsamples = 473\nvalue = [363, 110]"] ;
257 -> 258 ;
259 [label="X[11] <= 324.5\ngini = 0.368\nsamples = 427\nvalue = [323, 104]"] ;
258 -> 259 ;
260 [label="X[16] <= 477.0\ngini = 0.35\nsamples = 345\nvalue = [267, 78]"] ;
259 -> 260 ;
261 [label="X[0] <= 145000.0\ngini = 0.372\nsamples = 287\nvalue = [216, 71]"] ;
260 -> 261 ;
262 [label="X[14] <= 808.0\ngini = 0.295\nsamples = 128\nvalue = [105, 23]"] ;
261 -> 262 ;
263 [label="X[17] <= 273.0\ngini = 0.286\nsamples = 127\nvalue = [105, 22]"] ;
262 -> 263 ;
264 [label="X[13] <= 2186.0\ngini = 0.334\nsamples = 99\nvalue = [78, 21]"] ;
263 -> 264 ;
265 [label="X[0] <= 115000.0\ngini = 0.325\nsamples = 98\nvalue = [78, 20]"] ;
264 -> 265 ;
266 [label="X[4] <= 37.5\ngini = 0.379\nsamples = 63\nvalue = [47, 16]"] ;
265 -> 266 ;
267 [label="X[0] <= 55000.0\ngini = 0.417\nsamples = 54\nvalue = [38, 16]"] ;
266 -> 267 ;
268 [label="X[4] <= 30.5\ngini = 0.287\nsamples = 23\nvalue = [19, 4]"] ;
267 -> 268 ;
269 [label="X[4] <= 24.0\ngini = 0.124\nsamples = 15\nvalue = [14, 1]"] ;
268 -> 269 ;
270 [label="X[1] <= 1.5\ngini = 0.278\nsamples = 6\nvalue = [5, 1]"] ;
269 -> 270 ;
271 [label="X[2] <= 2.0\ngini = 0.444\nsamples = 3\nvalue = [2, 1]"] ;
270 -> 271 ;
272 [label="X[3] <= 1.5\ngini = 0.5\nsamples = 2\nvalue = [1, 1]"] ;
271 -> 272 ;
273 [label="gini = 0.0\nsamples = 1\nvalue = [1, 0]"] ;
272 -> 273 ;
274 [label="gini = 0.0\nsamples = 1\nvalue = [0, 1]"] ;
272 -> 274 ;
275 [label="gini = 0.0\nsamples = 1\nvalue = [1, 0]"] ;
271 -> 275 ;
276 [label="gini = 0.0\nsamples = 3\nvalue = [3, 0]"] ;
270 -> 276 ;
277 [label="gini = 0.0\nsamples = 9\nvalue = [9, 0]"] ;
269 -> 277 ;
278 [label="X[4] <= 33.5\ngini = 0.469\nsamples = 8\nvalue = [5, 3]"] ;
268 -> 278 ;
279 [label="X[2] <= 2.5\ngini = 0.48\nsamples = 5\nvalue = [2, 3]"] ;
278 -> 279 ;
280 [label="gini = 0.0\nsamples = 3\nvalue = [0, 3]"] ;
279 -> 280 ;
281 [label="gini = 0.0\nsamples = 2\nvalue = [2, 0]"] ;
279 -> 281 ;
282 [label="gini = 0.0\nsamples = 3\nvalue = [3, 0]"] ;
278 -> 282 ;
283 [label="X[4] <= 30.5\ngini = 0.475\nsamples = 31\nvalue = [19, 12]"] ;
267 -> 283 ;
284 [label="X[22] <= 451.5\ngini = 0.5\nsamples = 20\nvalue = [10, 10]"] ;
283 -> 284 ;
285 [label="X[21] <= 61.5\ngini = 0.494\nsamples = 18\nvalue = [8, 10]"] ;
284 -> 285 ;
286 [label="X[7] <= -1.5\ngini = 0.498\nsamples = 15\nvalue = [8, 7]"] ;
285 -> 286 ;
287 [label="X[20] <= 1241.5\ngini = 0.497\nsamples = 13\nvalue = [6, 7]"] ;
286 -> 287 ;
288 [label="X[22] <= 282.0\ngini = 0.486\nsamples = 12\nvalue = [5, 7]"] ;
287 -> 288 ;
289 [label="X[4] <= 29.5\ngini = 0.463\nsamples = 11\nvalue = [4, 7]"] ;
288 -> 289 ;
290 [label="X[4] <= 27.5\ngini = 0.42\nsamples = 10\nvalue = [3, 7]"] ;
289 -> 290 ;
291 [label="X[4] <= 26.5\ngini = 0.49\nsamples = 7\nvalue = [3, 4]"] ;
290 -> 291 ;
292 [label="X[0] <= 85000.0\ngini = 0.375\nsamples = 4\nvalue = [1, 3]"] ;
291 -> 292 ;
293 [label="gini = 0.0\nsamples = 3\nvalue = [0, 3]"] ;
292 -> 293 ;
294 [label="gini = 0.0\nsamples = 1\nvalue = [1, 0]"] ;
292 -> 294 ;
295 [label="X[0] <= 100000.0\ngini = 0.444\nsamples = 3\nvalue = [2, 1]"] ;
291 -> 295 ;
296 [label="gini = 0.0\nsamples = 2\nvalue = [2, 0]"] ;
295 -> 296 ;
297 [label="gini = 0.0\nsamples = 1\nvalue = [0, 1]"] ;
295 -> 297 ;
298 [label="gini = 0.0\nsamples = 3\nvalue = [0, 3]"] ;
290 -> 298 ;
299 [label="gini = 0.0\nsamples = 1\nvalue = [1, 0]"] ;
289 -> 299 ;
300 [label="gini = 0.0\nsamples = 1\nvalue = [1, 0]"] ;
288 -> 300 ;
301 [label="gini = 0.0\nsamples = 1\nvalue = [1, 0]"] ;
287 -> 301 ;
302 [label="gini = 0.0\nsamples = 2\nvalue = [2, 0]"] ;
286 -> 302 ;
303 [label="gini = 0.0\nsamples = 3\nvalue = [0, 3]"] ;
285 -> 303 ;
304 [label="gini = 0.0\nsamples = 2\nvalue = [2, 0]"] ;
284 -> 304 ;
305 [label="X[1] <= 1.5\ngini = 0.298\nsamples = 11\nvalue = [9, 2]"] ;
283 -> 305 ;
306 [label="X[4] <= 33.5\ngini = 0.5\nsamples = 4\nvalue = [2, 2]"] ;
305 -> 306 ;
307 [label="gini = 0.0\nsamples = 1\nvalue = [1, 0]"] ;
306 -> 307 ;
308 [label="X[0] <= 90000.0\ngini = 0.444\nsamples = 3\nvalue = [1, 2]"] ;
306 -> 308 ;
309 [label="gini = 0.0\nsamples = 2\nvalue = [0, 2]"] ;
308 -> 309 ;
310 [label="gini = 0.0\nsamples = 1\nvalue = [1, 0]"] ;
308 -> 310 ;
311 [label="gini = 0.0\nsamples = 7\nvalue = [7, 0]"] ;
305 -> 311 ;
312 [label="gini = 0.0\nsamples = 9\nvalue = [9, 0]"] ;
266 -> 312 ;
313 [label="X[4] <= 35.5\ngini = 0.202\nsamples = 35\nvalue = [31, 4]"] ;
265 -> 313 ;
314 [label="X[2] <= 1.5\ngini = 0.128\nsamples = 29\nvalue = [27, 2]"] ;
313 -> 314 ;
315 [label="X[4] <= 27.5\ngini = 0.245\nsamples = 14\nvalue = [12, 2]"] ;
314 -> 315 ;
316 [label="X[4] <= 26.0\ngini = 0.5\nsamples = 2\nvalue = [1, 1]"] ;
315 -> 316 ;
317 [label="gini = 0.0\nsamples = 1\nvalue = [1, 0]"] ;
316 -> 317 ;
318 [label="gini = 0.0\nsamples = 1\nvalue = [0, 1]"] ;
316 -> 318 ;
319 [label="X[4] <= 32.5\ngini = 0.153\nsamples = 12\nvalue = [11, 1]"] ;
315 -> 319 ;
320 [label="gini = 0.0\nsamples = 9\nvalue = [9, 0]"] ;
319 -> 320 ;
321 [label="X[4] <= 33.5\ngini = 0.444\nsamples = 3\nvalue = [2, 1]"] ;
319 -> 321 ;
322 [label="gini = 0.0\nsamples = 1\nvalue = [0, 1]"] ;
321 -> 322 ;
323 [label="gini = 0.0\nsamples = 2\nvalue = [2, 0]"] ;
321 -> 323 ;
324 [label="gini = 0.0\nsamples = 15\nvalue = [15, 0]"] ;
314 -> 324 ;
325 [label="X[4] <= 37.0\ngini = 0.444\nsamples = 6\nvalue = [4, 2]"] ;
313 -> 325 ;
326 [label="gini = 0.0\nsamples = 1\nvalue = [0, 1]"] ;
325 -> 326 ;
327 [label="X[0] <= 135000.0\ngini = 0.32\nsamples = 5\nvalue = [4, 1]"] ;
325 -> 327 ;
328 [label="gini = 0.0\nsamples = 4\nvalue = [4, 0]"] ;
327 -> 328 ;
329 [label="gini = 0.0\nsamples = 1\nvalue = [0, 1]"] ;
327 -> 329 ;
330 [label="gini = 0.0\nsamples = 1\nvalue = [0, 1]"] ;
264 -> 330 ;
331 [label="X[22] <= 499.5\ngini = 0.069\nsamples = 28\nvalue = [27, 1]"] ;
263 -> 331 ;
332 [label="gini = 0.0\nsamples = 26\nvalue = [26, 0]"] ;
331 -> 332 ;
333 [label="X[18] <= 368.0\ngini = 0.5\nsamples = 2\nvalue = [1, 1]"] ;
331 -> 333 ;
334 [label="gini = 0.0\nsamples = 1\nvalue = [1, 0]"] ;
333 -> 334 ;
335 [label="gini = 0.0\nsamples = 1\nvalue = [0, 1]"] ;
333 -> 335 ;
336 [label="gini = 0.0\nsamples = 1\nvalue = [0, 1]"] ;
262 -> 336 ;
337 [label="X[7] <= 0.5\ngini = 0.422\nsamples = 159\nvalue = [111, 48]"] ;
261 -> 337 ;
338 [label="X[15] <= 4845.0\ngini = 0.408\nsamples = 154\nvalue = [110, 44]"] ;
337 -> 338 ;
339 [label="X[20] <= 325.5\ngini = 0.4\nsamples = 152\nvalue = [110, 42]"] ;
338 -> 339 ;
340 [label="X[21] <= 404.0\ngini = 0.423\nsamples = 138\nvalue = [96, 42]"] ;
339 -> 340 ;
341 [label="X[4] <= 30.5\ngini = 0.415\nsamples = 136\nvalue = [96, 40]"] ;
340 -> 341 ;
342 [label="X[2] <= 1.5\ngini = 0.471\nsamples = 50\nvalue = [31, 19]"] ;
341 -> 342 ;
343 [label="X[4] <= 28.5\ngini = 0.418\nsamples = 37\nvalue = [26, 11]"] ;
342 -> 343 ;
344 [label="X[0] <= 205000.0\ngini = 0.133\nsamples = 14\nvalue = [13, 1]"] ;
343 -> 344 ;
345 [label="gini = 0.0\nsamples = 8\nvalue = [8, 0]"] ;
344 -> 345 ;
346 [label="X[4] <= 27.0\ngini = 0.278\nsamples = 6\nvalue = [5, 1]"] ;
344 -> 346 ;
347 [label="gini = 0.0\nsamples = 3\nvalue = [3, 0]"] ;
346 -> 347 ;
348 [label="X[1] <= 1.5\ngini = 0.444\nsamples = 3\nvalue = [2, 1]"] ;
346 -> 348 ;
349 [label="gini = 0.0\nsamples = 1\nvalue = [1, 0]"] ;
348 -> 349 ;
350 [label="X[3] <= 1.5\ngini = 0.5\nsamples = 2\nvalue = [1, 1]"] ;
348 -> 350 ;
351 [label="gini = 0.0\nsamples = 1\nvalue = [1, 0]"] ;
350 -> 351 ;
352 [label="gini = 0.0\nsamples = 1\nvalue = [0, 1]"] ;
350 -> 352 ;
353 [label="X[0] <= 165000.0\ngini = 0.491\nsamples = 23\nvalue = [13, 10]"] ;
343 -> 353 ;
354 [label="X[1] <= 1.5\ngini = 0.278\nsamples = 6\nvalue = [5, 1]"] ;
353 -> 354 ;
355 [label="X[17] <= 3142.5\ngini = 0.5\nsamples = 2\nvalue = [1, 1]"] ;
354 -> 355 ;
356 [label="gini = 0.0\nsamples = 1\nvalue = [0, 1]"] ;
355 -> 356 ;
357 [label="gini = 0.0\nsamples = 1\nvalue = [1, 0]"] ;
355 -> 357 ;
358 [label="gini = 0.0\nsamples = 4\nvalue = [4, 0]"] ;
354 -> 358 ;
359 [label="X[0] <= 220000.0\ngini = 0.498\nsamples = 17\nvalue = [8, 9]"] ;
353 -> 359 ;
360 [label="X[13] <= 49.5\ngini = 0.375\nsamples = 8\nvalue = [2, 6]"] ;
359 -> 360 ;
361 [label="gini = 0.0\nsamples = 5\nvalue = [0, 5]"] ;
360 -> 361 ;
362 [label="X[4] <= 29.5\ngini = 0.444\nsamples = 3\nvalue = [2, 1]"] ;
360 -> 362 ;
363 [label="gini = 0.0\nsamples = 2\nvalue = [2, 0]"] ;
362 -> 363 ;
364 [label="gini = 0.0\nsamples = 1\nvalue = [0, 1]"] ;
362 -> 364 ;
365 [label="X[4] <= 29.5\ngini = 0.444\nsamples = 9\nvalue = [6, 3]"] ;
359 -> 365 ;
366 [label="X[3] <= 2.5\ngini = 0.48\nsamples = 5\nvalue = [2, 3]"] ;
365 -> 366 ;
367 [label="X[0] <= 245000.0\ngini = 0.375\nsamples = 4\nvalue = [1, 3]"] ;
366 -> 367 ;
368 [label="gini = 0.0\nsamples = 2\nvalue = [0, 2]"] ;
367 -> 368 ;
369 [label="X[0] <= 270000.0\ngini = 0.5\nsamples = 2\nvalue = [1, 1]"] ;
367 -> 369 ;
370 [label="gini = 0.0\nsamples = 1\nvalue = [1, 0]"] ;
369 -> 370 ;
371 [label="gini = 0.0\nsamples = 1\nvalue = [0, 1]"] ;
369 -> 371 ;
372 [label="gini = 0.0\nsamples = 1\nvalue = [1, 0]"] ;
366 -> 372 ;
373 [label="gini = 0.0\nsamples = 4\nvalue = [4, 0]"] ;
365 -> 373 ;
374 [label="X[12] <= 104.0\ngini = 0.473\nsamples = 13\nvalue = [5, 8]"] ;
342 -> 374 ;
375 [label="X[13] <= 116.5\ngini = 0.5\nsamples = 10\nvalue = [5, 5]"] ;
374 -> 375 ;
376 [label="X[22] <= 462.5\ngini = 0.469\nsamples = 8\nvalue = [3, 5]"] ;
375 -> 376 ;
377 [label="X[4] <= 28.5\ngini = 0.408\nsamples = 7\nvalue = [2, 5]"] ;
376 -> 377 ;
378 [label="X[1] <= 1.5\ngini = 0.48\nsamples = 5\nvalue = [2, 3]"] ;
377 -> 378 ;
379 [label="gini = 0.0\nsamples = 1\nvalue = [1, 0]"] ;
378 -> 379 ;
380 [label="X[4] <= 27.5\ngini = 0.375\nsamples = 4\nvalue = [1, 3]"] ;
378 -> 380 ;
381 [label="gini = 0.0\nsamples = 3\nvalue = [0, 3]"] ;
380 -> 381 ;
382 [label="gini = 0.0\nsamples = 1\nvalue = [1, 0]"] ;
380 -> 382 ;
383 [label="gini = 0.0\nsamples = 2\nvalue = [0, 2]"] ;
377 -> 383 ;
384 [label="gini = 0.0\nsamples = 1\nvalue = [1, 0]"] ;
376 -> 384 ;
385 [label="gini = 0.0\nsamples = 2\nvalue = [2, 0]"] ;
375 -> 385 ;
386 [label="gini = 0.0\nsamples = 3\nvalue = [0, 3]"] ;
374 -> 386 ;
387 [label="X[21] <= 320.5\ngini = 0.369\nsamples = 86\nvalue = [65, 21]"] ;
341 -> 387 ;
388 [label="X[12] <= 26.5\ngini = 0.36\nsamples = 85\nvalue = [65, 20]"] ;
387 -> 388 ;
389 [label="X[16] <= 194.5\ngini = 0.404\nsamples = 64\nvalue = [46, 18]"] ;
388 -> 389 ;
390 [label="X[13] <= 1570.0\ngini = 0.394\nsamples = 63\nvalue = [46, 17]"] ;
389 -> 390 ;
391 [label="X[0] <= 225000.0\ngini = 0.383\nsamples = 62\nvalue = [46, 16]"] ;
390 -> 391 ;
392 [label="X[0] <= 190000.0\ngini = 0.331\nsamples = 43\nvalue = [34, 9]"] ;
391 -> 392 ;
393 [label="X[4] <= 37.0\ngini = 0.42\nsamples = 20\nvalue = [14, 6]"] ;
392 -> 393 ;
394 [label="X[3] <= 1.5\ngini = 0.278\nsamples = 12\nvalue = [10, 2]"] ;
393 -> 394 ;
395 [label="X[0] <= 155000.0\ngini = 0.198\nsamples = 9\nvalue = [8, 1]"] ;
394 -> 395 ;
396 [label="X[4] <= 32.5\ngini = 0.32\nsamples = 5\nvalue = [4, 1]"] ;
395 -> 396 ;
397 [label="gini = 0.0\nsamples = 2\nvalue = [2, 0]"] ;
396 -> 397 ;
398 [label="X[1] <= 1.5\ngini = 0.444\nsamples = 3\nvalue = [2, 1]"] ;
396 -> 398 ;
399 [label="gini = 0.0\nsamples = 1\nvalue = [1, 0]"] ;
398 -> 399 ;
400 [label="X[4] <= 34.0\ngini = 0.5\nsamples = 2\nvalue = [1, 1]"] ;
398 -> 400 ;
401 [label="gini = 0.0\nsamples = 1\nvalue = [0, 1]"] ;
400 -> 401 ;
402 [label="gini = 0.0\nsamples = 1\nvalue = [1, 0]"] ;
400 -> 402 ;
403 [label="gini = 0.0\nsamples = 4\nvalue = [4, 0]"] ;
395 -> 403 ;
404 [label="X[4] <= 31.5\ngini = 0.444\nsamples = 3\nvalue = [2, 1]"] ;
394 -> 404 ;
405 [label="gini = 0.0\nsamples = 1\nvalue = [0, 1]"] ;
404 -> 405 ;
406 [label="gini = 0.0\nsamples = 2\nvalue = [2, 0]"] ;
404 -> 406 ;
407 [label="X[4] <= 40.5\ngini = 0.5\nsamples = 8\nvalue = [4, 4]"] ;
393 -> 407 ;
408 [label="X[4] <= 39.5\ngini = 0.49\nsamples = 7\nvalue = [4, 3]"] ;
407 -> 408 ;
409 [label="X[0] <= 170000.0\ngini = 0.48\nsamples = 5\nvalue = [2, 3]"] ;
408 -> 409 ;
410 [label="gini = 0.0\nsamples = 2\nvalue = [0, 2]"] ;
409 -> 410 ;
411 [label="X[4] <= 38.5\ngini = 0.444\nsamples = 3\nvalue = [2, 1]"] ;
409 -> 411 ;
412 [label="gini = 0.0\nsamples = 1\nvalue = [1, 0]"] ;
411 -> 412 ;
413 [label="X[1] <= 1.5\ngini = 0.5\nsamples = 2\nvalue = [1, 1]"] ;
411 -> 413 ;
414 [label="gini = 0.0\nsamples = 1\nvalue = [1, 0]"] ;
413 -> 414 ;
415 [label="gini = 0.0\nsamples = 1\nvalue = [0, 1]"] ;
413 -> 415 ;
416 [label="gini = 0.0\nsamples = 2\nvalue = [2, 0]"] ;
408 -> 416 ;
417 [label="gini = 0.0\nsamples = 1\nvalue = [0, 1]"] ;
407 -> 417 ;
418 [label="X[2] <= 1.5\ngini = 0.227\nsamples = 23\nvalue = [20, 3]"] ;
392 -> 418 ;
419 [label="X[4] <= 31.5\ngini = 0.337\nsamples = 14\nvalue = [11, 3]"] ;
418 -> 419 ;
420 [label="gini = 0.0\nsamples = 1\nvalue = [0, 1]"] ;
419 -> 420 ;
421 [label="X[4] <= 38.0\ngini = 0.26\nsamples = 13\nvalue = [11, 2]"] ;
419 -> 421 ;
422 [label="X[4] <= 36.5\ngini = 0.375\nsamples = 8\nvalue = [6, 2]"] ;
421 -> 422 ;
423 [label="X[4] <= 34.5\ngini = 0.245\nsamples = 7\nvalue = [6, 1]"] ;
422 -> 423 ;
424 [label="X[4] <= 33.5\ngini = 0.375\nsamples = 4\nvalue = [3, 1]"] ;
423 -> 424 ;
425 [label="gini = 0.0\nsamples = 2\nvalue = [2, 0]"] ;
424 -> 425 ;
426 [label="gini = 0.5\nsamples = 2\nvalue = [1, 1]"] ;
424 -> 426 ;
427 [label="gini = 0.0\nsamples = 3\nvalue = [3, 0]"] ;
423 -> 427 ;
428 [label="gini = 0.0\nsamples = 1\nvalue = [0, 1]"] ;
422 -> 428 ;
429 [label="gini = 0.0\nsamples = 5\nvalue = [5, 0]"] ;
421 -> 429 ;
430 [label="gini = 0.0\nsamples = 9\nvalue = [9, 0]"] ;
418 -> 430 ;
431 [label="X[3] <= 1.5\ngini = 0.465\nsamples = 19\nvalue = [12, 7]"] ;
391 -> 431 ;
432 [label="X[5] <= 0.0\ngini = 0.397\nsamples = 11\nvalue = [8, 3]"] ;
431 -> 432 ;
433 [label="gini = 0.0\nsamples = 1\nvalue = [0, 1]"] ;
432 -> 433 ;
434 [label="X[4] <= 38.5\ngini = 0.32\nsamples = 10\nvalue = [8, 2]"] ;
432 -> 434 ;
435 [label="X[1] <= 1.5\ngini = 0.219\nsamples = 8\nvalue = [7, 1]"] ;
434 -> 435 ;
436 [label="X[4] <= 36.5\ngini = 0.444\nsamples = 3\nvalue = [2, 1]"] ;
435 -> 436 ;
437 [label="gini = 0.0\nsamples = 1\nvalue = [0, 1]"] ;
436 -> 437 ;
438 [label="gini = 0.0\nsamples = 2\nvalue = [2, 0]"] ;
436 -> 438 ;
439 [label="gini = 0.0\nsamples = 5\nvalue = [5, 0]"] ;
435 -> 439 ;
440 [label="X[0] <= 235000.0\ngini = 0.5\nsamples = 2\nvalue = [1, 1]"] ;
434 -> 440 ;
441 [label="gini = 0.0\nsamples = 1\nvalue = [0, 1]"] ;
440 -> 441 ;
442 [label="gini = 0.0\nsamples = 1\nvalue = [1, 0]"] ;
440 -> 442 ;
443 [label="X[1] <= 1.5\ngini = 0.5\nsamples = 8\nvalue = [4, 4]"] ;
431 -> 443 ;
444 [label="X[2] <= 1.5\ngini = 0.375\nsamples = 4\nvalue = [3, 1]"] ;
443 -> 444 ;
445 [label="X[4] <= 35.0\ngini = 0.5\nsamples = 2\nvalue = [1, 1]"] ;
444 -> 445 ;
446 [label="gini = 0.0\nsamples = 1\nvalue = [0, 1]"] ;
445 -> 446 ;
447 [label="gini = 0.0\nsamples = 1\nvalue = [1, 0]"] ;
445 -> 447 ;
448 [label="gini = 0.0\nsamples = 2\nvalue = [2, 0]"] ;
444 -> 448 ;
449 [label="X[6] <= -1.5\ngini = 0.375\nsamples = 4\nvalue = [1, 3]"] ;
443 -> 449 ;
450 [label="gini = 0.0\nsamples = 3\nvalue = [0, 3]"] ;
449 -> 450 ;
451 [label="gini = 0.0\nsamples = 1\nvalue = [1, 0]"] ;
449 -> 451 ;
452 [label="gini = 0.0\nsamples = 1\nvalue = [0, 1]"] ;
390 -> 452 ;
453 [label="gini = 0.0\nsamples = 1\nvalue = [0, 1]"] ;
389 -> 453 ;
454 [label="X[12] <= 620.5\ngini = 0.172\nsamples = 21\nvalue = [19, 2]"] ;
388 -> 454 ;
455 [label="gini = 0.0\nsamples = 13\nvalue = [13, 0]"] ;
454 -> 455 ;
456 [label="X[12] <= 814.0\ngini = 0.375\nsamples = 8\nvalue = [6, 2]"] ;
454 -> 456 ;
457 [label="gini = 0.0\nsamples = 1\nvalue = [0, 1]"] ;
456 -> 457 ;
458 [label="X[0] <= 185000.0\ngini = 0.245\nsamples = 7\nvalue = [6, 1]"] ;
456 -> 458 ;
459 [label="X[8] <= -1.5\ngini = 0.5\nsamples = 2\nvalue = [1, 1]"] ;
458 -> 459 ;
460 [label="gini = 0.0\nsamples = 1\nvalue = [0, 1]"] ;
459 -> 460 ;
461 [label="gini = 0.0\nsamples = 1\nvalue = [1, 0]"] ;
459 -> 461 ;
462 [label="gini = 0.0\nsamples = 5\nvalue = [5, 0]"] ;
458 -> 462 ;
463 [label="gini = 0.0\nsamples = 1\nvalue = [0, 1]"] ;
387 -> 463 ;
464 [label="gini = 0.0\nsamples = 2\nvalue = [0, 2]"] ;
340 -> 464 ;
465 [label="gini = 0.0\nsamples = 14\nvalue = [14, 0]"] ;
339 -> 465 ;
466 [label="gini = 0.0\nsamples = 2\nvalue = [0, 2]"] ;
338 -> 466 ;
467 [label="X[18] <= 0.5\ngini = 0.32\nsamples = 5\nvalue = [1, 4]"] ;
337 -> 467 ;
468 [label="gini = 0.0\nsamples = 4\nvalue = [0, 4]"] ;
467 -> 468 ;
469 [label="gini = 0.0\nsamples = 1\nvalue = [1, 0]"] ;
467 -> 469 ;
470 [label="X[20] <= 498.5\ngini = 0.212\nsamples = 58\nvalue = [51, 7]"] ;
260 -> 470 ;
471 [label="gini = 0.0\nsamples = 31\nvalue = [31, 0]"] ;
470 -> 471 ;
472 [label="X[11] <= 303.0\ngini = 0.384\nsamples = 27\nvalue = [20, 7]"] ;
470 -> 472 ;
473 [label="X[15] <= 525.0\ngini = 0.32\nsamples = 25\nvalue = [20, 5]"] ;
472 -> 473 ;
474 [label="gini = 0.0\nsamples = 1\nvalue = [0, 1]"] ;
473 -> 474 ;
475 [label="X[4] <= 40.0\ngini = 0.278\nsamples = 24\nvalue = [20, 4]"] ;
473 -> 475 ;
476 [label="X[18] <= 1.0\ngini = 0.227\nsamples = 23\nvalue = [20, 3]"] ;
475 -> 476 ;
477 [label="X[4] <= 31.5\ngini = 0.375\nsamples = 12\nvalue = [9, 3]"] ;
476 -> 477 ;
478 [label="X[0] <= 175000.0\ngini = 0.5\nsamples = 6\nvalue = [3, 3]"] ;
477 -> 478 ;
479 [label="gini = 0.0\nsamples = 2\nvalue = [0, 2]"] ;
478 -> 479 ;
480 [label="X[7] <= -1.5\ngini = 0.375\nsamples = 4\nvalue = [3, 1]"] ;
478 -> 480 ;
481 [label="gini = 0.0\nsamples = 3\nvalue = [3, 0]"] ;
480 -> 481 ;
482 [label="gini = 0.0\nsamples = 1\nvalue = [0, 1]"] ;
480 -> 482 ;
483 [label="gini = 0.0\nsamples = 6\nvalue = [6, 0]"] ;
477 -> 483 ;
484 [label="gini = 0.0\nsamples = 11\nvalue = [11, 0]"] ;
476 -> 484 ;
485 [label="gini = 0.0\nsamples = 1\nvalue = [0, 1]"] ;
475 -> 485 ;
486 [label="gini = 0.0\nsamples = 2\nvalue = [0, 2]"] ;
472 -> 486 ;
487 [label="X[13] <= 3323.0\ngini = 0.433\nsamples = 82\nvalue = [56, 26]"] ;
259 -> 487 ;
488 [label="X[21] <= 3972.0\ngini = 0.413\nsamples = 79\nvalue = [56, 23]"] ;
487 -> 488 ;
489 [label="X[15] <= 410.5\ngini = 0.397\nsamples = 77\nvalue = [56, 21]"] ;
488 -> 489 ;
490 [label="X[4] <= 36.5\ngini = 0.32\nsamples = 50\nvalue = [40, 10]"] ;
489 -> 490 ;
491 [label="X[11] <= 365.0\ngini = 0.175\nsamples = 31\nvalue = [28, 3]"] ;
490 -> 491 ;
492 [label="X[2] <= 1.5\ngini = 0.375\nsamples = 12\nvalue = [9, 3]"] ;
491 -> 492 ;
493 [label="X[22] <= 229.0\ngini = 0.5\nsamples = 6\nvalue = [3, 3]"] ;
492 -> 493 ;
494 [label="gini = 0.0\nsamples = 2\nvalue = [0, 2]"] ;
493 -> 494 ;
495 [label="X[4] <= 32.5\ngini = 0.375\nsamples = 4\nvalue = [3, 1]"] ;
493 -> 495 ;
496 [label="gini = 0.0\nsamples = 3\nvalue = [3, 0]"] ;
495 -> 496 ;
497 [label="gini = 0.0\nsamples = 1\nvalue = [0, 1]"] ;
495 -> 497 ;
498 [label="gini = 0.0\nsamples = 6\nvalue = [6, 0]"] ;
492 -> 498 ;
499 [label="gini = 0.0\nsamples = 19\nvalue = [19, 0]"] ;
491 -> 499 ;
500 [label="X[2] <= 1.5\ngini = 0.465\nsamples = 19\nvalue = [12, 7]"] ;
490 -> 500 ;
501 [label="gini = 0.0\nsamples = 2\nvalue = [0, 2]"] ;
500 -> 501 ;
502 [label="X[17] <= 1424.5\ngini = 0.415\nsamples = 17\nvalue = [12, 5]"] ;
500 -> 502 ;
503 [label="X[21] <= 1430.0\ngini = 0.375\nsamples = 16\nvalue = [12, 4]"] ;
502 -> 503 ;
504 [label="X[0] <= 215000.0\ngini = 0.32\nsamples = 15\nvalue = [12, 3]"] ;
503 -> 504 ;
505 [label="X[0] <= 165000.0\ngini = 0.444\nsamples = 9\nvalue = [6, 3]"] ;
504 -> 505 ;
506 [label="X[0] <= 65000.0\ngini = 0.245\nsamples = 7\nvalue = [6, 1]"] ;
505 -> 506 ;
507 [label="X[3] <= 1.5\ngini = 0.5\nsamples = 2\nvalue = [1, 1]"] ;
506 -> 507 ;
508 [label="gini = 0.0\nsamples = 1\nvalue = [0, 1]"] ;
507 -> 508 ;
509 [label="gini = 0.0\nsamples = 1\nvalue = [1, 0]"] ;
507 -> 509 ;
510 [label="gini = 0.0\nsamples = 5\nvalue = [5, 0]"] ;
506 -> 510 ;
511 [label="gini = 0.0\nsamples = 2\nvalue = [0, 2]"] ;
505 -> 511 ;
512 [label="gini = 0.0\nsamples = 6\nvalue = [6, 0]"] ;
504 -> 512 ;
513 [label="gini = 0.0\nsamples = 1\nvalue = [0, 1]"] ;
503 -> 513 ;
514 [label="gini = 0.0\nsamples = 1\nvalue = [0, 1]"] ;
502 -> 514 ;
515 [label="X[18] <= 251.0\ngini = 0.483\nsamples = 27\nvalue = [16, 11]"] ;
489 -> 515 ;
516 [label="gini = 0.0\nsamples = 6\nvalue = [6, 0]"] ;
515 -> 516 ;
517 [label="X[0] <= 150000.0\ngini = 0.499\nsamples = 21\nvalue = [10, 11]"] ;
515 -> 517 ;
518 [label="X[16] <= 716.0\ngini = 0.397\nsamples = 11\nvalue = [3, 8]"] ;
517 -> 518 ;
519 [label="X[3] <= 1.5\ngini = 0.219\nsamples = 8\nvalue = [1, 7]"] ;
518 -> 519 ;
520 [label="X[15] <= 855.0\ngini = 0.444\nsamples = 3\nvalue = [1, 2]"] ;
519 -> 520 ;
521 [label="gini = 0.0\nsamples = 1\nvalue = [1, 0]"] ;
520 -> 521 ;
522 [label="gini = 0.0\nsamples = 2\nvalue = [0, 2]"] ;
520 -> 522 ;
523 [label="gini = 0.0\nsamples = 5\nvalue = [0, 5]"] ;
519 -> 523 ;
524 [label="X[11] <= 385.0\ngini = 0.444\nsamples = 3\nvalue = [2, 1]"] ;
518 -> 524 ;
525 [label="gini = 0.0\nsamples = 1\nvalue = [0, 1]"] ;
524 -> 525 ;
526 [label="gini = 0.0\nsamples = 2\nvalue = [2, 0]"] ;
524 -> 526 ;
527 [label="X[21] <= 401.0\ngini = 0.42\nsamples = 10\nvalue = [7, 3]"] ;
517 -> 527 ;
528 [label="X[13] <= 343.0\ngini = 0.245\nsamples = 7\nvalue = [6, 1]"] ;
527 -> 528 ;
529 [label="X[3] <= 1.5\ngini = 0.444\nsamples = 3\nvalue = [2, 1]"] ;
528 -> 529 ;
530 [label="X[1] <= 1.5\ngini = 0.5\nsamples = 2\nvalue = [1, 1]"] ;
529 -> 530 ;
531 [label="gini = 0.0\nsamples = 1\nvalue = [0, 1]"] ;
530 -> 531 ;
532 [label="gini = 0.0\nsamples = 1\nvalue = [1, 0]"] ;
530 -> 532 ;
533 [label="gini = 0.0\nsamples = 1\nvalue = [1, 0]"] ;
529 -> 533 ;
534 [label="gini = 0.0\nsamples = 4\nvalue = [4, 0]"] ;
528 -> 534 ;
535 [label="X[21] <= 860.0\ngini = 0.444\nsamples = 3\nvalue = [1, 2]"] ;
527 -> 535 ;
536 [label="gini = 0.0\nsamples = 2\nvalue = [0, 2]"] ;
535 -> 536 ;
537 [label="gini = 0.0\nsamples = 1\nvalue = [1, 0]"] ;
535 -> 537 ;
538 [label="gini = 0.0\nsamples = 2\nvalue = [0, 2]"] ;
488 -> 538 ;
539 [label="gini = 0.0\nsamples = 3\nvalue = [0, 3]"] ;
487 -> 539 ;
540 [label="X[1] <= 1.5\ngini = 0.227\nsamples = 46\nvalue = [40, 6]"] ;
258 -> 540 ;
541 [label="X[16] <= 576.0\ngini = 0.363\nsamples = 21\nvalue = [16, 5]"] ;
540 -> 541 ;
542 [label="X[15] <= 397.5\ngini = 0.266\nsamples = 19\nvalue = [16, 3]"] ;
541 -> 542 ;
543 [label="gini = 0.0\nsamples = 12\nvalue = [12, 0]"] ;
542 -> 543 ;
544 [label="X[22] <= 407.5\ngini = 0.49\nsamples = 7\nvalue = [4, 3]"] ;
542 -> 544 ;
545 [label="gini = 0.0\nsamples = 3\nvalue = [0, 3]"] ;
544 -> 545 ;
546 [label="gini = 0.0\nsamples = 4\nvalue = [4, 0]"] ;
544 -> 546 ;
547 [label="gini = 0.0\nsamples = 2\nvalue = [0, 2]"] ;
541 -> 547 ;
548 [label="X[0] <= 65000.0\ngini = 0.077\nsamples = 25\nvalue = [24, 1]"] ;
540 -> 548 ;
549 [label="gini = 0.0\nsamples = 1\nvalue = [0, 1]"] ;
548 -> 549 ;
550 [label="gini = 0.0\nsamples = 24\nvalue = [24, 0]"] ;
548 -> 550 ;
551 [label="X[1] <= 1.5\ngini = 0.444\nsamples = 3\nvalue = [1, 2]"] ;
257 -> 551 ;
552 [label="gini = 0.0\nsamples = 2\nvalue = [0, 2]"] ;
551 -> 552 ;
553 [label="gini = 0.0\nsamples = 1\nvalue = [1, 0]"] ;
551 -> 553 ;
554 [label="gini = 0.0\nsamples = 1\nvalue = [0, 1]"] ;
256 -> 554 ;
555 [label="X[12] <= 827.0\ngini = 0.233\nsamples = 52\nvalue = [45, 7]"] ;
255 -> 555 ;
556 [label="X[8] <= -0.5\ngini = 0.105\nsamples = 36\nvalue = [34, 2]"] ;
555 -> 556 ;
557 [label="X[11] <= 804.0\ngini = 0.056\nsamples = 35\nvalue = [34, 1]"] ;
556 -> 557 ;
558 [label="gini = 0.0\nsamples = 33\nvalue = [33, 0]"] ;
557 -> 558 ;
559 [label="X[22] <= 158.0\ngini = 0.5\nsamples = 2\nvalue = [1, 1]"] ;
557 -> 559 ;
560 [label="gini = 0.0\nsamples = 1\nvalue = [1, 0]"] ;
559 -> 560 ;
561 [label="gini = 0.0\nsamples = 1\nvalue = [0, 1]"] ;
559 -> 561 ;
562 [label="gini = 0.0\nsamples = 1\nvalue = [0, 1]"] ;
556 -> 562 ;
563 [label="X[11] <= 692.0\ngini = 0.43\nsamples = 16\nvalue = [11, 5]"] ;
555 -> 563 ;
564 [label="X[4] <= 24.0\ngini = 0.18\nsamples = 10\nvalue = [9, 1]"] ;
563 -> 564 ;
565 [label="gini = 0.0\nsamples = 1\nvalue = [0, 1]"] ;
564 -> 565 ;
566 [label="gini = 0.0\nsamples = 9\nvalue = [9, 0]"] ;
564 -> 566 ;
567 [label="X[20] <= 415.5\ngini = 0.444\nsamples = 6\nvalue = [2, 4]"] ;
563 -> 567 ;
568 [label="gini = 0.0\nsamples = 2\nvalue = [2, 0]"] ;
567 -> 568 ;
569 [label="gini = 0.0\nsamples = 4\nvalue = [0, 4]"] ;
567 -> 569 ;
570 [label="X[0] <= 175000.0\ngini = 0.444\nsamples = 3\nvalue = [1, 2]"] ;
254 -> 570 ;
571 [label="gini = 0.0\nsamples = 2\nvalue = [0, 2]"] ;
570 -> 571 ;
572 [label="gini = 0.0\nsamples = 1\nvalue = [1, 0]"] ;
570 -> 572 ;
573 [label="gini = 0.0\nsamples = 1\nvalue = [0, 1]"] ;
253 -> 573 ;
574 [label="gini = 0.0\nsamples = 1\nvalue = [0, 1]"] ;
252 -> 574 ;
575 [label="X[0] <= 205000.0\ngini = 0.455\nsamples = 63\nvalue = [41, 22]"] ;
251 -> 575 ;
576 [label="X[15] <= 933.0\ngini = 0.405\nsamples = 46\nvalue = [33, 13]"] ;
575 -> 576 ;
577 [label="X[1] <= 1.5\ngini = 0.375\nsamples = 44\nvalue = [33, 11]"] ;
576 -> 577 ;
578 [label="X[3] <= 1.5\ngini = 0.484\nsamples = 17\nvalue = [10, 7]"] ;
577 -> 578 ;
579 [label="X[2] <= 2.5\ngini = 0.497\nsamples = 13\nvalue = [6, 7]"] ;
578 -> 579 ;
580 [label="X[5] <= 0.0\ngini = 0.48\nsamples = 10\nvalue = [6, 4]"] ;
579 -> 580 ;
581 [label="X[22] <= 312.0\ngini = 0.32\nsamples = 5\nvalue = [4, 1]"] ;
580 -> 581 ;
582 [label="gini = 0.0\nsamples = 4\nvalue = [4, 0]"] ;
581 -> 582 ;
583 [label="gini = 0.0\nsamples = 1\nvalue = [0, 1]"] ;
581 -> 583 ;
584 [label="X[0] <= 110000.0\ngini = 0.48\nsamples = 5\nvalue = [2, 3]"] ;
580 -> 584 ;
585 [label="gini = 0.0\nsamples = 1\nvalue = [1, 0]"] ;
584 -> 585 ;
586 [label="X[4] <= 44.0\ngini = 0.375\nsamples = 4\nvalue = [1, 3]"] ;
584 -> 586 ;
587 [label="gini = 0.0\nsamples = 1\nvalue = [0, 1]"] ;
586 -> 587 ;
588 [label="X[17] <= 239.5\ngini = 0.444\nsamples = 3\nvalue = [1, 2]"] ;
586 -> 588 ;
589 [label="gini = 0.5\nsamples = 2\nvalue = [1, 1]"] ;
588 -> 589 ;
590 [label="gini = 0.0\nsamples = 1\nvalue = [0, 1]"] ;
588 -> 590 ;
591 [label="gini = 0.0\nsamples = 3\nvalue = [0, 3]"] ;
579 -> 591 ;
592 [label="gini = 0.0\nsamples = 4\nvalue = [4, 0]"] ;
578 -> 592 ;
593 [label="X[17] <= 363.5\ngini = 0.252\nsamples = 27\nvalue = [23, 4]"] ;
577 -> 593 ;
594 [label="gini = 0.0\nsamples = 13\nvalue = [13, 0]"] ;
593 -> 594 ;
595 [label="X[0] <= 85000.0\ngini = 0.408\nsamples = 14\nvalue = [10, 4]"] ;
593 -> 595 ;
596 [label="gini = 0.0\nsamples = 6\nvalue = [6, 0]"] ;
595 -> 596 ;
597 [label="X[18] <= 393.0\ngini = 0.5\nsamples = 8\nvalue = [4, 4]"] ;
595 -> 597 ;
598 [label="X[12] <= 9670.5\ngini = 0.32\nsamples = 5\nvalue = [1, 4]"] ;
597 -> 598 ;
599 [label="gini = 0.0\nsamples = 4\nvalue = [0, 4]"] ;
598 -> 599 ;
600 [label="gini = 0.0\nsamples = 1\nvalue = [1, 0]"] ;
598 -> 600 ;
601 [label="gini = 0.0\nsamples = 3\nvalue = [3, 0]"] ;
597 -> 601 ;
602 [label="gini = 0.0\nsamples = 2\nvalue = [0, 2]"] ;
576 -> 602 ;
603 [label="X[4] <= 44.5\ngini = 0.498\nsamples = 17\nvalue = [8, 9]"] ;
575 -> 603 ;
604 [label="X[21] <= 425.0\ngini = 0.397\nsamples = 11\nvalue = [3, 8]"] ;
603 -> 604 ;
605 [label="X[0] <= 215000.0\ngini = 0.32\nsamples = 10\nvalue = [2, 8]"] ;
604 -> 605 ;
606 [label="X[2] <= 2.5\ngini = 0.48\nsamples = 5\nvalue = [2, 3]"] ;
605 -> 606 ;
607 [label="X[4] <= 43.5\ngini = 0.5\nsamples = 4\nvalue = [2, 2]"] ;
606 -> 607 ;
608 [label="X[2] <= 1.5\ngini = 0.444\nsamples = 3\nvalue = [1, 2]"] ;
607 -> 608 ;
609 [label="gini = 0.5\nsamples = 2\nvalue = [1, 1]"] ;
608 -> 609 ;
610 [label="gini = 0.0\nsamples = 1\nvalue = [0, 1]"] ;
608 -> 610 ;
611 [label="gini = 0.0\nsamples = 1\nvalue = [1, 0]"] ;
607 -> 611 ;
612 [label="gini = 0.0\nsamples = 1\nvalue = [0, 1]"] ;
606 -> 612 ;
613 [label="gini = 0.0\nsamples = 5\nvalue = [0, 5]"] ;
605 -> 613 ;
614 [label="gini = 0.0\nsamples = 1\nvalue = [1, 0]"] ;
604 -> 614 ;
615 [label="X[12] <= 406.0\ngini = 0.278\nsamples = 6\nvalue = [5, 1]"] ;
603 -> 615 ;
616 [label="gini = 0.0\nsamples = 5\nvalue = [5, 0]"] ;
615 -> 616 ;
617 [label="gini = 0.0\nsamples = 1\nvalue = [0, 1]"] ;
615 -> 617 ;
618 [label="X[11] <= -51.5\ngini = 0.465\nsamples = 49\nvalue = [31, 18]"] ;
250 -> 618 ;
619 [label="gini = 0.0\nsamples = 2\nvalue = [0, 2]"] ;
618 -> 619 ;
620 [label="X[7] <= -0.5\ngini = 0.449\nsamples = 47\nvalue = [31, 16]"] ;
618 -> 620 ;
621 [label="X[0] <= 100000.0\ngini = 0.492\nsamples = 32\nvalue = [18, 14]"] ;
620 -> 621 ;
622 [label="X[14] <= 666.0\ngini = 0.375\nsamples = 8\nvalue = [2, 6]"] ;
621 -> 622 ;
623 [label="gini = 0.0\nsamples = 2\nvalue = [2, 0]"] ;
622 -> 623 ;
624 [label="gini = 0.0\nsamples = 6\nvalue = [0, 6]"] ;
622 -> 624 ;
625 [label="X[18] <= 985.0\ngini = 0.444\nsamples = 24\nvalue = [16, 8]"] ;
621 -> 625 ;
626 [label="X[15] <= 513.0\ngini = 0.463\nsamples = 11\nvalue = [4, 7]"] ;
625 -> 626 ;
627 [label="X[12] <= 99.5\ngini = 0.346\nsamples = 9\nvalue = [2, 7]"] ;
626 -> 627 ;
628 [label="X[15] <= 65.5\ngini = 0.444\nsamples = 3\nvalue = [2, 1]"] ;
627 -> 628 ;
629 [label="gini = 0.0\nsamples = 1\nvalue = [0, 1]"] ;
628 -> 629 ;
630 [label="gini = 0.0\nsamples = 2\nvalue = [2, 0]"] ;
628 -> 630 ;
631 [label="gini = 0.0\nsamples = 6\nvalue = [0, 6]"] ;
627 -> 631 ;
632 [label="gini = 0.0\nsamples = 2\nvalue = [2, 0]"] ;
626 -> 632 ;
633 [label="X[4] <= 36.5\ngini = 0.142\nsamples = 13\nvalue = [12, 1]"] ;
625 -> 633 ;
634 [label="gini = 0.0\nsamples = 11\nvalue = [11, 0]"] ;
633 -> 634 ;
635 [label="X[11] <= 53.5\ngini = 0.5\nsamples = 2\nvalue = [1, 1]"] ;
633 -> 635 ;
636 [label="gini = 0.0\nsamples = 1\nvalue = [0, 1]"] ;
635 -> 636 ;
637 [label="gini = 0.0\nsamples = 1\nvalue = [1, 0]"] ;
635 -> 637 ;
638 [label="X[11] <= -4.0\ngini = 0.231\nsamples = 15\nvalue = [13, 2]"] ;
620 -> 638 ;
639 [label="gini = 0.0\nsamples = 1\nvalue = [0, 1]"] ;
638 -> 639 ;
640 [label="X[13] <= 83.0\ngini = 0.133\nsamples = 14\nvalue = [13, 1]"] ;
638 -> 640 ;
641 [label="gini = 0.0\nsamples = 1\nvalue = [0, 1]"] ;
640 -> 641 ;
642 [label="gini = 0.0\nsamples = 13\nvalue = [13, 0]"] ;
640 -> 642 ;
643 [label="gini = 0.0\nsamples = 4\nvalue = [0, 4]"] ;
249 -> 643 ;
644 [label="X[4] <= 32.5\ngini = 0.219\nsamples = 48\nvalue = [42, 6]"] ;
248 -> 644 ;
645 [label="X[14] <= 621.0\ngini = 0.355\nsamples = 26\nvalue = [20, 6]"] ;
644 -> 645 ;
646 [label="X[22] <= 917.5\ngini = 0.469\nsamples = 16\nvalue = [10, 6]"] ;
645 -> 646 ;
647 [label="gini = 0.0\nsamples = 6\nvalue = [6, 0]"] ;
646 -> 647 ;
648 [label="X[11] <= 228.5\ngini = 0.48\nsamples = 10\nvalue = [4, 6]"] ;
646 -> 648 ;
649 [label="X[22] <= 995.0\ngini = 0.444\nsamples = 6\nvalue = [4, 2]"] ;
648 -> 649 ;
650 [label="gini = 0.0\nsamples = 2\nvalue = [0, 2]"] ;
649 -> 650 ;
651 [label="gini = 0.0\nsamples = 4\nvalue = [4, 0]"] ;
649 -> 651 ;
652 [label="gini = 0.0\nsamples = 4\nvalue = [0, 4]"] ;
648 -> 652 ;
653 [label="gini = 0.0\nsamples = 10\nvalue = [10, 0]"] ;
645 -> 653 ;
654 [label="gini = 0.0\nsamples = 22\nvalue = [22, 0]"] ;
644 -> 654 ;
655 [label="gini = 0.0\nsamples = 2\nvalue = [0, 2]"] ;
247 -> 655 ;
656 [label="X[17] <= 118.0\ngini = 0.443\nsamples = 284\nvalue = [190, 94]"] ;
98 -> 656 ;
657 [label="X[16] <= 221.0\ngini = 0.489\nsamples = 181\nvalue = [104, 77]"] ;
656 -> 657 ;
658 [label="X[4] <= 32.5\ngini = 0.499\nsamples = 155\nvalue = [80, 75]"] ;
657 -> 658 ;
659 [label="X[3] <= 1.5\ngini = 0.448\nsamples = 59\nvalue = [39, 20]"] ;
658 -> 659 ;
660 [label="X[0] <= 345000.0\ngini = 0.49\nsamples = 14\nvalue = [6, 8]"] ;
659 -> 660 ;
661 [label="gini = 0.0\nsamples = 3\nvalue = [0, 3]"] ;
660 -> 661 ;
662 [label="X[4] <= 28.5\ngini = 0.496\nsamples = 11\nvalue = [6, 5]"] ;
660 -> 662 ;
663 [label="gini = 0.0\nsamples = 3\nvalue = [3, 0]"] ;
662 -> 663 ;
664 [label="X[5] <= -1.5\ngini = 0.469\nsamples = 8\nvalue = [3, 5]"] ;
662 -> 664 ;
665 [label="gini = 0.0\nsamples = 2\nvalue = [2, 0]"] ;
664 -> 665 ;
666 [label="X[2] <= 1.5\ngini = 0.278\nsamples = 6\nvalue = [1, 5]"] ;
664 -> 666 ;
667 [label="gini = 0.0\nsamples = 4\nvalue = [0, 4]"] ;
666 -> 667 ;
668 [label="X[4] <= 30.0\ngini = 0.5\nsamples = 2\nvalue = [1, 1]"] ;
666 -> 668 ;
669 [label="gini = 0.0\nsamples = 1\nvalue = [0, 1]"] ;
668 -> 669 ;
670 [label="gini = 0.0\nsamples = 1\nvalue = [1, 0]"] ;
668 -> 670 ;
671 [label="X[2] <= 1.5\ngini = 0.391\nsamples = 45\nvalue = [33, 12]"] ;
659 -> 671 ;
672 [label="X[21] <= 1855.0\ngini = 0.305\nsamples = 32\nvalue = [26, 6]"] ;
671 -> 672 ;
673 [label="X[4] <= 28.5\ngini = 0.271\nsamples = 31\nvalue = [26, 5]"] ;
672 -> 673 ;
674 [label="X[5] <= 0.0\ngini = 0.133\nsamples = 14\nvalue = [13, 1]"] ;
673 -> 674 ;
675 [label="gini = 0.0\nsamples = 9\nvalue = [9, 0]"] ;
674 -> 675 ;
676 [label="X[4] <= 27.5\ngini = 0.32\nsamples = 5\nvalue = [4, 1]"] ;
674 -> 676 ;
677 [label="gini = 0.444\nsamples = 3\nvalue = [2, 1]"] ;
676 -> 677 ;
678 [label="gini = 0.0\nsamples = 2\nvalue = [2, 0]"] ;
676 -> 678 ;
679 [label="X[4] <= 30.5\ngini = 0.36\nsamples = 17\nvalue = [13, 4]"] ;
673 -> 679 ;
680 [label="X[5] <= -0.5\ngini = 0.463\nsamples = 11\nvalue = [7, 4]"] ;
679 -> 680 ;
681 [label="X[20] <= 315.0\ngini = 0.375\nsamples = 4\nvalue = [1, 3]"] ;
680 -> 681 ;
682 [label="gini = 0.0\nsamples = 3\nvalue = [0, 3]"] ;
681 -> 682 ;
683 [label="gini = 0.0\nsamples = 1\nvalue = [1, 0]"] ;
681 -> 683 ;
684 [label="X[0] <= 370000.0\ngini = 0.245\nsamples = 7\nvalue = [6, 1]"] ;
680 -> 684 ;
685 [label="gini = 0.0\nsamples = 5\nvalue = [5, 0]"] ;
684 -> 685 ;
686 [label="X[1] <= 1.5\ngini = 0.5\nsamples = 2\nvalue = [1, 1]"] ;
684 -> 686 ;
687 [label="gini = 0.0\nsamples = 1\nvalue = [0, 1]"] ;
686 -> 687 ;
688 [label="gini = 0.0\nsamples = 1\nvalue = [1, 0]"] ;
686 -> 688 ;
689 [label="gini = 0.0\nsamples = 6\nvalue = [6, 0]"] ;
679 -> 689 ;
690 [label="gini = 0.0\nsamples = 1\nvalue = [0, 1]"] ;
672 -> 690 ;
691 [label="X[4] <= 27.5\ngini = 0.497\nsamples = 13\nvalue = [7, 6]"] ;
671 -> 691 ;
692 [label="gini = 0.0\nsamples = 3\nvalue = [3, 0]"] ;
691 -> 692 ;
693 [label="X[4] <= 28.5\ngini = 0.48\nsamples = 10\nvalue = [4, 6]"] ;
691 -> 693 ;
694 [label="gini = 0.0\nsamples = 4\nvalue = [0, 4]"] ;
693 -> 694 ;
695 [label="X[18] <= 2500.0\ngini = 0.444\nsamples = 6\nvalue = [4, 2]"] ;
693 -> 695 ;
696 [label="X[4] <= 29.5\ngini = 0.32\nsamples = 5\nvalue = [4, 1]"] ;
695 -> 696 ;
697 [label="gini = 0.0\nsamples = 2\nvalue = [2, 0]"] ;
696 -> 697 ;
698 [label="X[0] <= 430000.0\ngini = 0.444\nsamples = 3\nvalue = [2, 1]"] ;
696 -> 698 ;
699 [label="X[5] <= -0.5\ngini = 0.5\nsamples = 2\nvalue = [1, 1]"] ;
698 -> 699 ;
700 [label="gini = 0.0\nsamples = 1\nvalue = [1, 0]"] ;
699 -> 700 ;
701 [label="gini = 0.0\nsamples = 1\nvalue = [0, 1]"] ;
699 -> 701 ;
702 [label="gini = 0.0\nsamples = 1\nvalue = [1, 0]"] ;
698 -> 702 ;
703 [label="gini = 0.0\nsamples = 1\nvalue = [0, 1]"] ;
695 -> 703 ;
704 [label="X[11] <= 28.0\ngini = 0.489\nsamples = 96\nvalue = [41, 55]"] ;
658 -> 704 ;
705 [label="X[4] <= 43.5\ngini = 0.475\nsamples = 90\nvalue = [35, 55]"] ;
704 -> 705 ;
706 [label="X[4] <= 40.5\ngini = 0.462\nsamples = 83\nvalue = [30, 53]"] ;
705 -> 706 ;
707 [label="X[22] <= 29.5\ngini = 0.486\nsamples = 65\nvalue = [27, 38]"] ;
706 -> 707 ;
708 [label="X[0] <= 385000.0\ngini = 0.468\nsamples = 59\nvalue = [22, 37]"] ;
707 -> 708 ;
709 [label="X[0] <= 315000.0\ngini = 0.427\nsamples = 42\nvalue = [13, 29]"] ;
708 -> 709 ;
710 [label="X[3] <= 1.5\ngini = 0.5\nsamples = 12\nvalue = [6, 6]"] ;
709 -> 710 ;
711 [label="X[4] <= 37.5\ngini = 0.278\nsamples = 6\nvalue = [5, 1]"] ;
710 -> 711 ;
712 [label="gini = 0.0\nsamples = 5\nvalue = [5, 0]"] ;
711 -> 712 ;
713 [label="gini = 0.0\nsamples = 1\nvalue = [0, 1]"] ;
711 -> 713 ;
714 [label="X[4] <= 38.5\ngini = 0.278\nsamples = 6\nvalue = [1, 5]"] ;
710 -> 714 ;
715 [label="gini = 0.0\nsamples = 5\nvalue = [0, 5]"] ;
714 -> 715 ;
716 [label="gini = 0.0\nsamples = 1\nvalue = [1, 0]"] ;
714 -> 716 ;
717 [label="X[20] <= 280.5\ngini = 0.358\nsamples = 30\nvalue = [7, 23]"] ;
709 -> 717 ;
718 [label="X[1] <= 1.5\ngini = 0.328\nsamples = 29\nvalue = [6, 23]"] ;
717 -> 718 ;
719 [label="X[2] <= 2.5\ngini = 0.444\nsamples = 12\nvalue = [4, 8]"] ;
718 -> 719 ;
720 [label="X[4] <= 38.5\ngini = 0.397\nsamples = 11\nvalue = [3, 8]"] ;
719 -> 720 ;
721 [label="X[4] <= 34.5\ngini = 0.245\nsamples = 7\nvalue = [1, 6]"] ;
720 -> 721 ;
722 [label="X[2] <= 1.5\ngini = 0.444\nsamples = 3\nvalue = [1, 2]"] ;
721 -> 722 ;
723 [label="X[0] <= 340000.0\ngini = 0.5\nsamples = 2\nvalue = [1, 1]"] ;
722 -> 723 ;
724 [label="gini = 0.0\nsamples = 1\nvalue = [0, 1]"] ;
723 -> 724 ;
725 [label="gini = 0.0\nsamples = 1\nvalue = [1, 0]"] ;
723 -> 725 ;
726 [label="gini = 0.0\nsamples = 1\nvalue = [0, 1]"] ;
722 -> 726 ;
727 [label="gini = 0.0\nsamples = 4\nvalue = [0, 4]"] ;
721 -> 727 ;
728 [label="X[5] <= -0.5\ngini = 0.5\nsamples = 4\nvalue = [2, 2]"] ;
720 -> 728 ;
729 [label="gini = 0.0\nsamples = 1\nvalue = [1, 0]"] ;
728 -> 729 ;
730 [label="X[0] <= 375000.0\ngini = 0.444\nsamples = 3\nvalue = [1, 2]"] ;
728 -> 730 ;
731 [label="gini = 0.5\nsamples = 2\nvalue = [1, 1]"] ;
730 -> 731 ;
732 [label="gini = 0.0\nsamples = 1\nvalue = [0, 1]"] ;
730 -> 732 ;
733 [label="gini = 0.0\nsamples = 1\nvalue = [1, 0]"] ;
719 -> 733 ;
734 [label="X[4] <= 35.5\ngini = 0.208\nsamples = 17\nvalue = [2, 15]"] ;
718 -> 734 ;
735 [label="gini = 0.0\nsamples = 10\nvalue = [0, 10]"] ;
734 -> 735 ;
736 [label="X[4] <= 36.5\ngini = 0.408\nsamples = 7\nvalue = [2, 5]"] ;
734 -> 736 ;
737 [label="gini = 0.0\nsamples = 1\nvalue = [1, 0]"] ;
736 -> 737 ;
738 [label="X[3] <= 1.5\ngini = 0.278\nsamples = 6\nvalue = [1, 5]"] ;
736 -> 738 ;
739 [label="X[2] <= 1.5\ngini = 0.375\nsamples = 4\nvalue = [1, 3]"] ;
738 -> 739 ;
740 [label="gini = 0.0\nsamples = 1\nvalue = [0, 1]"] ;
739 -> 740 ;
741 [label="X[4] <= 37.5\ngini = 0.444\nsamples = 3\nvalue = [1, 2]"] ;
739 -> 741 ;
742 [label="gini = 0.0\nsamples = 1\nvalue = [0, 1]"] ;
741 -> 742 ;
743 [label="X[4] <= 38.5\ngini = 0.5\nsamples = 2\nvalue = [1, 1]"] ;
741 -> 743 ;
744 [label="gini = 0.0\nsamples = 1\nvalue = [1, 0]"] ;
743 -> 744 ;
745 [label="gini = 0.0\nsamples = 1\nvalue = [0, 1]"] ;
743 -> 745 ;
746 [label="gini = 0.0\nsamples = 2\nvalue = [0, 2]"] ;
738 -> 746 ;
747 [label="gini = 0.0\nsamples = 1\nvalue = [1, 0]"] ;
717 -> 747 ;
748 [label="X[5] <= -0.5\ngini = 0.498\nsamples = 17\nvalue = [9, 8]"] ;
708 -> 748 ;
749 [label="X[2] <= 2.0\ngini = 0.408\nsamples = 7\nvalue = [2, 5]"] ;
748 -> 749 ;
750 [label="X[1] <= 1.5\ngini = 0.278\nsamples = 6\nvalue = [1, 5]"] ;
749 -> 750 ;
751 [label="X[4] <= 34.5\ngini = 0.444\nsamples = 3\nvalue = [1, 2]"] ;
750 -> 751 ;
752 [label="gini = 0.0\nsamples = 1\nvalue = [1, 0]"] ;
751 -> 752 ;
753 [label="gini = 0.0\nsamples = 2\nvalue = [0, 2]"] ;
751 -> 753 ;
754 [label="gini = 0.0\nsamples = 3\nvalue = [0, 3]"] ;
750 -> 754 ;
755 [label="gini = 0.0\nsamples = 1\nvalue = [1, 0]"] ;
749 -> 755 ;
756 [label="X[2] <= 1.5\ngini = 0.42\nsamples = 10\nvalue = [7, 3]"] ;
748 -> 756 ;
757 [label="X[0] <= 475000.0\ngini = 0.245\nsamples = 7\nvalue = [6, 1]"] ;
756 -> 757 ;
758 [label="gini = 0.0\nsamples = 4\nvalue = [4, 0]"] ;
757 -> 758 ;
759 [label="X[4] <= 38.0\ngini = 0.444\nsamples = 3\nvalue = [2, 1]"] ;
757 -> 759 ;
760 [label="gini = 0.0\nsamples = 1\nvalue = [0, 1]"] ;
759 -> 760 ;
761 [label="gini = 0.0\nsamples = 2\nvalue = [2, 0]"] ;
759 -> 761 ;
762 [label="X[4] <= 39.5\ngini = 0.444\nsamples = 3\nvalue = [1, 2]"] ;
756 -> 762 ;
763 [label="gini = 0.0\nsamples = 2\nvalue = [0, 2]"] ;
762 -> 763 ;
764 [label="gini = 0.0\nsamples = 1\nvalue = [1, 0]"] ;
762 -> 764 ;
765 [label="X[4] <= 36.5\ngini = 0.278\nsamples = 6\nvalue = [5, 1]"] ;
707 -> 765 ;
766 [label="gini = 0.0\nsamples = 4\nvalue = [4, 0]"] ;
765 -> 766 ;
767 [label="X[0] <= 390000.0\ngini = 0.5\nsamples = 2\nvalue = [1, 1]"] ;
765 -> 767 ;
768 [label="gini = 0.0\nsamples = 1\nvalue = [0, 1]"] ;
767 -> 768 ;
769 [label="gini = 0.0\nsamples = 1\nvalue = [1, 0]"] ;
767 -> 769 ;
770 [label="X[0] <= 345000.0\ngini = 0.278\nsamples = 18\nvalue = [3, 15]"] ;
706 -> 770 ;
771 [label="gini = 0.0\nsamples = 4\nvalue = [0, 4]"] ;
770 -> 771 ;
772 [label="X[0] <= 490000.0\ngini = 0.337\nsamples = 14\nvalue = [3, 11]"] ;
770 -> 772 ;
773 [label="X[0] <= 435000.0\ngini = 0.42\nsamples = 10\nvalue = [3, 7]"] ;
772 -> 773 ;
774 [label="X[4] <= 41.5\ngini = 0.346\nsamples = 9\nvalue = [2, 7]"] ;
773 -> 774 ;
775 [label="gini = 0.0\nsamples = 4\nvalue = [0, 4]"] ;
774 -> 775 ;
776 [label="X[2] <= 2.5\ngini = 0.48\nsamples = 5\nvalue = [2, 3]"] ;
774 -> 776 ;
777 [label="X[1] <= 1.5\ngini = 0.444\nsamples = 3\nvalue = [2, 1]"] ;
776 -> 777 ;
778 [label="gini = 0.0\nsamples = 1\nvalue = [0, 1]"] ;
777 -> 778 ;
779 [label="gini = 0.0\nsamples = 2\nvalue = [2, 0]"] ;
777 -> 779 ;
780 [label="gini = 0.0\nsamples = 2\nvalue = [0, 2]"] ;
776 -> 780 ;
781 [label="gini = 0.0\nsamples = 1\nvalue = [1, 0]"] ;
773 -> 781 ;
782 [label="gini = 0.0\nsamples = 4\nvalue = [0, 4]"] ;
772 -> 782 ;
783 [label="X[0] <= 310000.0\ngini = 0.408\nsamples = 7\nvalue = [5, 2]"] ;
705 -> 783 ;
784 [label="gini = 0.0\nsamples = 1\nvalue = [0, 1]"] ;
783 -> 784 ;
785 [label="X[2] <= 1.5\ngini = 0.278\nsamples = 6\nvalue = [5, 1]"] ;
783 -> 785 ;
786 [label="gini = 0.0\nsamples = 3\nvalue = [3, 0]"] ;
785 -> 786 ;
787 [label="X[5] <= -0.5\ngini = 0.444\nsamples = 3\nvalue = [2, 1]"] ;
785 -> 787 ;
788 [label="gini = 0.0\nsamples = 1\nvalue = [1, 0]"] ;
787 -> 788 ;
789 [label="X[0] <= 340000.0\ngini = 0.5\nsamples = 2\nvalue = [1, 1]"] ;
787 -> 789 ;
790 [label="gini = 0.0\nsamples = 1\nvalue = [1, 0]"] ;
789 -> 790 ;
791 [label="gini = 0.0\nsamples = 1\nvalue = [0, 1]"] ;
789 -> 791 ;
792 [label="gini = 0.0\nsamples = 6\nvalue = [6, 0]"] ;
704 -> 792 ;
793 [label="X[12] <= 107.0\ngini = 0.142\nsamples = 26\nvalue = [24, 2]"] ;
657 -> 793 ;
794 [label="X[11] <= 664.0\ngini = 0.077\nsamples = 25\nvalue = [24, 1]"] ;
793 -> 794 ;
795 [label="gini = 0.0\nsamples = 22\nvalue = [22, 0]"] ;
794 -> 795 ;
796 [label="X[14] <= 195.0\ngini = 0.444\nsamples = 3\nvalue = [2, 1]"] ;
794 -> 796 ;
797 [label="gini = 0.0\nsamples = 2\nvalue = [2, 0]"] ;
796 -> 797 ;
798 [label="gini = 0.0\nsamples = 1\nvalue = [0, 1]"] ;
796 -> 798 ;
799 [label="gini = 0.0\nsamples = 1\nvalue = [0, 1]"] ;
793 -> 799 ;
800 [label="X[21] <= 357.5\ngini = 0.276\nsamples = 103\nvalue = [86, 17]"] ;
656 -> 800 ;
801 [label="X[18] <= 101.0\ngini = 0.124\nsamples = 60\nvalue = [56, 4]"] ;
800 -> 801 ;
802 [label="X[18] <= 52.5\ngini = 0.287\nsamples = 23\nvalue = [19, 4]"] ;
801 -> 802 ;
803 [label="X[4] <= 36.0\ngini = 0.236\nsamples = 22\nvalue = [19, 3]"] ;
802 -> 803 ;
804 [label="X[17] <= 1145.0\ngini = 0.397\nsamples = 11\nvalue = [8, 3]"] ;
803 -> 804 ;
805 [label="X[12] <= 427.0\ngini = 0.48\nsamples = 5\nvalue = [2, 3]"] ;
804 -> 805 ;
806 [label="gini = 0.0\nsamples = 2\nvalue = [2, 0]"] ;
805 -> 806 ;
807 [label="gini = 0.0\nsamples = 3\nvalue = [0, 3]"] ;
805 -> 807 ;
808 [label="gini = 0.0\nsamples = 6\nvalue = [6, 0]"] ;
804 -> 808 ;
809 [label="gini = 0.0\nsamples = 11\nvalue = [11, 0]"] ;
803 -> 809 ;
810 [label="gini = 0.0\nsamples = 1\nvalue = [0, 1]"] ;
802 -> 810 ;
811 [label="gini = 0.0\nsamples = 37\nvalue = [37, 0]"] ;
801 -> 811 ;
812 [label="X[13] <= 417.5\ngini = 0.422\nsamples = 43\nvalue = [30, 13]"] ;
800 -> 812 ;
813 [label="X[18] <= 589.0\ngini = 0.198\nsamples = 18\nvalue = [16, 2]"] ;
812 -> 813 ;
814 [label="X[4] <= 28.5\ngini = 0.111\nsamples = 17\nvalue = [16, 1]"] ;
813 -> 814 ;
815 [label="X[4] <= 27.5\ngini = 0.375\nsamples = 4\nvalue = [3, 1]"] ;
814 -> 815 ;
816 [label="gini = 0.0\nsamples = 3\nvalue = [3, 0]"] ;
815 -> 816 ;
817 [label="gini = 0.0\nsamples = 1\nvalue = [0, 1]"] ;
815 -> 817 ;
818 [label="gini = 0.0\nsamples = 13\nvalue = [13, 0]"] ;
814 -> 818 ;
819 [label="gini = 0.0\nsamples = 1\nvalue = [0, 1]"] ;
813 -> 819 ;
820 [label="X[16] <= 1595.5\ngini = 0.493\nsamples = 25\nvalue = [14, 11]"] ;
812 -> 820 ;
821 [label="X[4] <= 33.0\ngini = 0.469\nsamples = 16\nvalue = [6, 10]"] ;
820 -> 821 ;
822 [label="X[17] <= 14939.5\ngini = 0.32\nsamples = 5\nvalue = [4, 1]"] ;
821 -> 822 ;
823 [label="gini = 0.0\nsamples = 4\nvalue = [4, 0]"] ;
822 -> 823 ;
824 [label="gini = 0.0\nsamples = 1\nvalue = [0, 1]"] ;
822 -> 824 ;
825 [label="X[12] <= 442.5\ngini = 0.298\nsamples = 11\nvalue = [2, 9]"] ;
821 -> 825 ;
826 [label="gini = 0.0\nsamples = 1\nvalue = [1, 0]"] ;
825 -> 826 ;
827 [label="X[20] <= 890.5\ngini = 0.18\nsamples = 10\nvalue = [1, 9]"] ;
825 -> 827 ;
828 [label="gini = 0.0\nsamples = 8\nvalue = [0, 8]"] ;
827 -> 828 ;
829 [label="X[7] <= -1.5\ngini = 0.5\nsamples = 2\nvalue = [1, 1]"] ;
827 -> 829 ;
830 [label="gini = 0.0\nsamples = 1\nvalue = [0, 1]"] ;
829 -> 830 ;
831 [label="gini = 0.0\nsamples = 1\nvalue = [1, 0]"] ;
829 -> 831 ;
832 [label="X[19] <= 417.5\ngini = 0.198\nsamples = 9\nvalue = [8, 1]"] ;
820 -> 832 ;
833 [label="gini = 0.0\nsamples = 8\nvalue = [8, 0]"] ;
832 -> 833 ;
834 [label="gini = 0.0\nsamples = 1\nvalue = [0, 1]"] ;
832 -> 834 ;
835 [label="X[0] <= 15000.0\ngini = 0.254\nsamples = 274\nvalue = [233, 41]"] ;
27 -> 835 ;
836 [label="gini = 0.0\nsamples = 2\nvalue = [0, 2]"] ;
835 -> 836 ;
837 [label="X[15] <= -90.0\ngini = 0.246\nsamples = 272\nvalue = [233, 39]"] ;
835 -> 837 ;
838 [label="X[7] <= -1.5\ngini = 0.48\nsamples = 5\nvalue = [2, 3]"] ;
837 -> 838 ;
839 [label="gini = 0.0\nsamples = 3\nvalue = [0, 3]"] ;
838 -> 839 ;
840 [label="gini = 0.0\nsamples = 2\nvalue = [2, 0]"] ;
838 -> 840 ;
841 [label="X[0] <= 185000.0\ngini = 0.233\nsamples = 267\nvalue = [231, 36]"] ;
837 -> 841 ;
842 [label="X[17] <= 922.0\ngini = 0.316\nsamples = 127\nvalue = [102, 25]"] ;
841 -> 842 ;
843 [label="X[17] <= 601.0\ngini = 0.37\nsamples = 94\nvalue = [71, 23]"] ;
842 -> 843 ;
844 [label="X[1] <= 1.5\ngini = 0.299\nsamples = 82\nvalue = [67, 15]"] ;
843 -> 844 ;
845 [label="gini = 0.0\nsamples = 18\nvalue = [18, 0]"] ;
844 -> 845 ;
846 [label="X[19] <= 221.0\ngini = 0.359\nsamples = 64\nvalue = [49, 15]"] ;
844 -> 846 ;
847 [label="X[22] <= 1301.5\ngini = 0.423\nsamples = 46\nvalue = [32, 14]"] ;
846 -> 847 ;
848 [label="gini = 0.0\nsamples = 2\nvalue = [0, 2]"] ;
847 -> 848 ;
849 [label="X[22] <= 12640.5\ngini = 0.397\nsamples = 44\nvalue = [32, 12]"] ;
847 -> 849 ;
850 [label="X[15] <= 45371.0\ngini = 0.349\nsamples = 40\nvalue = [31, 9]"] ;
849 -> 850 ;
851 [label="X[3] <= 2.5\ngini = 0.326\nsamples = 39\nvalue = [31, 8]"] ;
850 -> 851 ;
852 [label="X[0] <= 175000.0\ngini = 0.301\nsamples = 38\nvalue = [31, 7]"] ;
851 -> 852 ;
853 [label="X[15] <= 961.0\ngini = 0.219\nsamples = 32\nvalue = [28, 4]"] ;
852 -> 853 ;
854 [label="X[20] <= 475.0\ngini = 0.308\nsamples = 21\nvalue = [17, 4]"] ;
853 -> 854 ;
855 [label="X[22] <= 1411.5\ngini = 0.198\nsamples = 18\nvalue = [16, 2]"] ;
854 -> 855 ;
856 [label="X[0] <= 145000.0\ngini = 0.5\nsamples = 2\nvalue = [1, 1]"] ;
855 -> 856 ;
857 [label="gini = 0.0\nsamples = 1\nvalue = [1, 0]"] ;
856 -> 857 ;
858 [label="gini = 0.0\nsamples = 1\nvalue = [0, 1]"] ;
856 -> 858 ;
859 [label="X[22] <= 6350.0\ngini = 0.117\nsamples = 16\nvalue = [15, 1]"] ;
855 -> 859 ;
860 [label="gini = 0.0\nsamples = 13\nvalue = [13, 0]"] ;
859 -> 860 ;
861 [label="X[22] <= 7750.0\ngini = 0.444\nsamples = 3\nvalue = [2, 1]"] ;
859 -> 861 ;
862 [label="gini = 0.0\nsamples = 1\nvalue = [0, 1]"] ;
861 -> 862 ;
863 [label="gini = 0.0\nsamples = 2\nvalue = [2, 0]"] ;
861 -> 863 ;
864 [label="X[21] <= 369.0\ngini = 0.444\nsamples = 3\nvalue = [1, 2]"] ;
854 -> 864 ;
865 [label="gini = 0.0\nsamples = 2\nvalue = [0, 2]"] ;
864 -> 865 ;
866 [label="gini = 0.0\nsamples = 1\nvalue = [1, 0]"] ;
864 -> 866 ;
867 [label="gini = 0.0\nsamples = 11\nvalue = [11, 0]"] ;
853 -> 867 ;
868 [label="X[5] <= -1.5\ngini = 0.5\nsamples = 6\nvalue = [3, 3]"] ;
852 -> 868 ;
869 [label="gini = 0.0\nsamples = 2\nvalue = [0, 2]"] ;
868 -> 869 ;
870 [label="X[22] <= 1547.0\ngini = 0.375\nsamples = 4\nvalue = [3, 1]"] ;
868 -> 870 ;
871 [label="gini = 0.0\nsamples = 1\nvalue = [0, 1]"] ;
870 -> 871 ;
872 [label="gini = 0.0\nsamples = 3\nvalue = [3, 0]"] ;
870 -> 872 ;
873 [label="gini = 0.0\nsamples = 1\nvalue = [0, 1]"] ;
851 -> 873 ;
874 [label="gini = 0.0\nsamples = 1\nvalue = [0, 1]"] ;
850 -> 874 ;
875 [label="X[4] <= 29.5\ngini = 0.375\nsamples = 4\nvalue = [1, 3]"] ;
849 -> 875 ;
876 [label="gini = 0.0\nsamples = 1\nvalue = [1, 0]"] ;
875 -> 876 ;
877 [label="gini = 0.0\nsamples = 3\nvalue = [0, 3]"] ;
875 -> 877 ;
878 [label="X[0] <= 175000.0\ngini = 0.105\nsamples = 18\nvalue = [17, 1]"] ;
846 -> 878 ;
879 [label="gini = 0.0\nsamples = 15\nvalue = [15, 0]"] ;
878 -> 879 ;
880 [label="X[22] <= 3612.5\ngini = 0.444\nsamples = 3\nvalue = [2, 1]"] ;
878 -> 880 ;
881 [label="gini = 0.0\nsamples = 1\nvalue = [0, 1]"] ;
880 -> 881 ;
882 [label="gini = 0.0\nsamples = 2\nvalue = [2, 0]"] ;
880 -> 882 ;
883 [label="X[19] <= 458.5\ngini = 0.444\nsamples = 12\nvalue = [4, 8]"] ;
843 -> 883 ;
884 [label="gini = 0.0\nsamples = 4\nvalue = [0, 4]"] ;
883 -> 884 ;
885 [label="X[13] <= 686.5\ngini = 0.5\nsamples = 8\nvalue = [4, 4]"] ;
883 -> 885 ;
886 [label="gini = 0.0\nsamples = 3\nvalue = [3, 0]"] ;
885 -> 886 ;
887 [label="X[2] <= 2.5\ngini = 0.32\nsamples = 5\nvalue = [1, 4]"] ;
885 -> 887 ;
888 [label="gini = 0.0\nsamples = 4\nvalue = [0, 4]"] ;
887 -> 888 ;
889 [label="gini = 0.0\nsamples = 1\nvalue = [1, 0]"] ;
887 -> 889 ;
890 [label="X[14] <= 24877.5\ngini = 0.114\nsamples = 33\nvalue = [31, 2]"] ;
842 -> 890 ;
891 [label="X[10] <= -1.5\ngini = 0.061\nsamples = 32\nvalue = [31, 1]"] ;
890 -> 891 ;
892 [label="X[8] <= -1.5\ngini = 0.278\nsamples = 6\nvalue = [5, 1]"] ;
891 -> 892 ;
893 [label="gini = 0.0\nsamples = 4\nvalue = [4, 0]"] ;
892 -> 893 ;
894 [label="X[4] <= 26.5\ngini = 0.5\nsamples = 2\nvalue = [1, 1]"] ;
892 -> 894 ;
895 [label="gini = 0.0\nsamples = 1\nvalue = [1, 0]"] ;
894 -> 895 ;
896 [label="gini = 0.0\nsamples = 1\nvalue = [0, 1]"] ;
894 -> 896 ;
897 [label="gini = 0.0\nsamples = 26\nvalue = [26, 0]"] ;
891 -> 897 ;
898 [label="gini = 0.0\nsamples = 1\nvalue = [0, 1]"] ;
890 -> 898 ;
899 [label="X[14] <= 789.5\ngini = 0.145\nsamples = 140\nvalue = [129, 11]"] ;
841 -> 899 ;
900 [label="X[9] <= -0.5\ngini = 0.081\nsamples = 118\nvalue = [113, 5]"] ;
899 -> 900 ;
901 [label="X[16] <= -32.0\ngini = 0.052\nsamples = 113\nvalue = [110, 3]"] ;
900 -> 901 ;
902 [label="X[14] <= 151.5\ngini = 0.5\nsamples = 2\nvalue = [1, 1]"] ;
901 -> 902 ;
903 [label="gini = 0.0\nsamples = 1\nvalue = [1, 0]"] ;
902 -> 903 ;
904 [label="gini = 0.0\nsamples = 1\nvalue = [0, 1]"] ;
902 -> 904 ;
905 [label="X[1] <= 1.5\ngini = 0.035\nsamples = 111\nvalue = [109, 2]"] ;
901 -> 905 ;
906 [label="X[4] <= 32.0\ngini = 0.124\nsamples = 30\nvalue = [28, 2]"] ;
905 -> 906 ;
907 [label="X[0] <= 330000.0\ngini = 0.278\nsamples = 12\nvalue = [10, 2]"] ;
906 -> 907 ;
908 [label="X[14] <= 345.0\ngini = 0.165\nsamples = 11\nvalue = [10, 1]"] ;
907 -> 908 ;
909 [label="gini = 0.0\nsamples = 9\nvalue = [9, 0]"] ;
908 -> 909 ;
910 [label="X[18] <= 777.0\ngini = 0.5\nsamples = 2\nvalue = [1, 1]"] ;
908 -> 910 ;
911 [label="gini = 0.0\nsamples = 1\nvalue = [0, 1]"] ;
910 -> 911 ;
912 [label="gini = 0.0\nsamples = 1\nvalue = [1, 0]"] ;
910 -> 912 ;
913 [label="gini = 0.0\nsamples = 1\nvalue = [0, 1]"] ;
907 -> 913 ;
914 [label="gini = 0.0\nsamples = 18\nvalue = [18, 0]"] ;
906 -> 914 ;
915 [label="gini = 0.0\nsamples = 81\nvalue = [81, 0]"] ;
905 -> 915 ;
916 [label="X[22] <= 6336.5\ngini = 0.48\nsamples = 5\nvalue = [3, 2]"] ;
900 -> 916 ;
917 [label="gini = 0.0\nsamples = 3\nvalue = [3, 0]"] ;
916 -> 917 ;
918 [label="gini = 0.0\nsamples = 2\nvalue = [0, 2]"] ;
916 -> 918 ;
919 [label="X[8] <= 1.0\ngini = 0.397\nsamples = 22\nvalue = [16, 6]"] ;
899 -> 919 ;
920 [label="X[13] <= 4879.5\ngini = 0.32\nsamples = 20\nvalue = [16, 4]"] ;
919 -> 920 ;
921 [label="X[22] <= 8588.5\ngini = 0.48\nsamples = 10\nvalue = [6, 4]"] ;
920 -> 921 ;
922 [label="X[13] <= 566.5\ngini = 0.245\nsamples = 7\nvalue = [6, 1]"] ;
921 -> 922 ;
923 [label="gini = 0.0\nsamples = 1\nvalue = [0, 1]"] ;
922 -> 923 ;
924 [label="gini = 0.0\nsamples = 6\nvalue = [6, 0]"] ;
922 -> 924 ;
925 [label="gini = 0.0\nsamples = 3\nvalue = [0, 3]"] ;
921 -> 925 ;
926 [label="gini = 0.0\nsamples = 10\nvalue = [10, 0]"] ;
920 -> 926 ;
927 [label="gini = 0.0\nsamples = 2\nvalue = [0, 2]"] ;
919 -> 927 ;
928 [label="X[5] <= -1.5\ngini = 0.463\nsamples = 360\nvalue = [229, 131]"] ;
4 -> 928 ;
929 [label="X[16] <= 1177.5\ngini = 0.339\nsamples = 111\nvalue = [87, 24]"] ;
928 -> 929 ;
930 [label="X[13] <= 1013.5\ngini = 0.386\nsamples = 92\nvalue = [68, 24]"] ;
929 -> 930 ;
931 [label="X[20] <= 12.5\ngini = 0.357\nsamples = 86\nvalue = [66, 20]"] ;
930 -> 931 ;
932 [label="X[10] <= -1.5\ngini = 0.417\nsamples = 64\nvalue = [45, 19]"] ;
931 -> 932 ;
933 [label="X[4] <= 63.5\ngini = 0.398\nsamples = 62\nvalue = [45, 17]"] ;
932 -> 933 ;
934 [label="X[12] <= 2832.0\ngini = 0.357\nsamples = 56\nvalue = [43, 13]"] ;
933 -> 934 ;
935 [label="X[21] <= 928.0\ngini = 0.341\nsamples = 55\nvalue = [43, 12]"] ;
934 -> 935 ;
936 [label="X[11] <= 832.0\ngini = 0.324\nsamples = 54\nvalue = [43, 11]"] ;
935 -> 936 ;
937 [label="X[17] <= 49.5\ngini = 0.306\nsamples = 53\nvalue = [43, 10]"] ;
936 -> 937 ;
938 [label="X[13] <= 498.5\ngini = 0.346\nsamples = 45\nvalue = [35, 10]"] ;
937 -> 938 ;
939 [label="X[4] <= 49.5\ngini = 0.325\nsamples = 44\nvalue = [35, 9]"] ;
938 -> 939 ;
940 [label="X[0] <= 165000.0\ngini = 0.188\nsamples = 19\nvalue = [17, 2]"] ;
939 -> 940 ;
941 [label="X[4] <= 46.5\ngini = 0.48\nsamples = 5\nvalue = [3, 2]"] ;
940 -> 941 ;
942 [label="gini = 0.0\nsamples = 2\nvalue = [0, 2]"] ;
941 -> 942 ;
943 [label="gini = 0.0\nsamples = 3\nvalue = [3, 0]"] ;
941 -> 943 ;
944 [label="gini = 0.0\nsamples = 14\nvalue = [14, 0]"] ;
940 -> 944 ;
945 [label="X[4] <= 54.5\ngini = 0.403\nsamples = 25\nvalue = [18, 7]"] ;
939 -> 945 ;
946 [label="X[13] <= 72.5\ngini = 0.455\nsamples = 20\nvalue = [13, 7]"] ;
945 -> 946 ;
947 [label="X[3] <= 2.5\ngini = 0.475\nsamples = 18\nvalue = [11, 7]"] ;
946 -> 947 ;
948 [label="X[0] <= 115000.0\ngini = 0.457\nsamples = 17\nvalue = [11, 6]"] ;
947 -> 948 ;
949 [label="gini = 0.0\nsamples = 3\nvalue = [3, 0]"] ;
948 -> 949 ;
950 [label="X[0] <= 370000.0\ngini = 0.49\nsamples = 14\nvalue = [8, 6]"] ;
948 -> 950 ;
951 [label="X[4] <= 50.5\ngini = 0.5\nsamples = 12\nvalue = [6, 6]"] ;
950 -> 951 ;
952 [label="gini = 0.0\nsamples = 2\nvalue = [0, 2]"] ;
951 -> 952 ;
953 [label="X[0] <= 335000.0\ngini = 0.48\nsamples = 10\nvalue = [6, 4]"] ;
951 -> 953 ;
954 [label="X[2] <= 2.5\ngini = 0.444\nsamples = 9\nvalue = [6, 3]"] ;
953 -> 954 ;
955 [label="X[0] <= 210000.0\ngini = 0.49\nsamples = 7\nvalue = [4, 3]"] ;
954 -> 955 ;
956 [label="gini = 0.0\nsamples = 1\nvalue = [0, 1]"] ;
955 -> 956 ;
957 [label="X[4] <= 53.5\ngini = 0.444\nsamples = 6\nvalue = [4, 2]"] ;
955 -> 957 ;
958 [label="X[0] <= 255000.0\ngini = 0.5\nsamples = 4\nvalue = [2, 2]"] ;
957 -> 958 ;
959 [label="gini = 0.0\nsamples = 1\nvalue = [0, 1]"] ;
958 -> 959 ;
960 [label="X[16] <= -0.5\ngini = 0.444\nsamples = 3\nvalue = [2, 1]"] ;
958 -> 960 ;
961 [label="gini = 0.0\nsamples = 1\nvalue = [1, 0]"] ;
960 -> 961 ;
962 [label="X[22] <= 292.0\ngini = 0.5\nsamples = 2\nvalue = [1, 1]"] ;
960 -> 962 ;
963 [label="gini = 0.0\nsamples = 1\nvalue = [0, 1]"] ;
962 -> 963 ;
964 [label="gini = 0.0\nsamples = 1\nvalue = [1, 0]"] ;
962 -> 964 ;
965 [label="gini = 0.0\nsamples = 2\nvalue = [2, 0]"] ;
957 -> 965 ;
966 [label="gini = 0.0\nsamples = 2\nvalue = [2, 0]"] ;
954 -> 966 ;
967 [label="gini = 0.0\nsamples = 1\nvalue = [0, 1]"] ;
953 -> 967 ;
968 [label="gini = 0.0\nsamples = 2\nvalue = [2, 0]"] ;
950 -> 968 ;
969 [label="gini = 0.0\nsamples = 1\nvalue = [0, 1]"] ;
947 -> 969 ;
970 [label="gini = 0.0\nsamples = 2\nvalue = [2, 0]"] ;
946 -> 970 ;
971 [label="gini = 0.0\nsamples = 5\nvalue = [5, 0]"] ;
945 -> 971 ;
972 [label="gini = 0.0\nsamples = 1\nvalue = [0, 1]"] ;
938 -> 972 ;
973 [label="gini = 0.0\nsamples = 8\nvalue = [8, 0]"] ;
937 -> 973 ;
974 [label="gini = 0.0\nsamples = 1\nvalue = [0, 1]"] ;
936 -> 974 ;
975 [label="gini = 0.0\nsamples = 1\nvalue = [0, 1]"] ;
935 -> 975 ;
976 [label="gini = 0.0\nsamples = 1\nvalue = [0, 1]"] ;
934 -> 976 ;
977 [label="X[13] <= 250.0\ngini = 0.444\nsamples = 6\nvalue = [2, 4]"] ;
933 -> 977 ;
978 [label="X[4] <= 68.0\ngini = 0.32\nsamples = 5\nvalue = [1, 4]"] ;
977 -> 978 ;
979 [label="gini = 0.0\nsamples = 3\nvalue = [0, 3]"] ;
978 -> 979 ;
980 [label="X[4] <= 71.0\ngini = 0.5\nsamples = 2\nvalue = [1, 1]"] ;
978 -> 980 ;
981 [label="gini = 0.0\nsamples = 1\nvalue = [1, 0]"] ;
980 -> 981 ;
982 [label="gini = 0.0\nsamples = 1\nvalue = [0, 1]"] ;
980 -> 982 ;
983 [label="gini = 0.0\nsamples = 1\nvalue = [1, 0]"] ;
977 -> 983 ;
984 [label="gini = 0.0\nsamples = 2\nvalue = [0, 2]"] ;
932 -> 984 ;
985 [label="X[16] <= 465.0\ngini = 0.087\nsamples = 22\nvalue = [21, 1]"] ;
931 -> 985 ;
986 [label="gini = 0.0\nsamples = 19\nvalue = [19, 0]"] ;
985 -> 986 ;
987 [label="X[2] <= 1.5\ngini = 0.444\nsamples = 3\nvalue = [2, 1]"] ;
985 -> 987 ;
988 [label="gini = 0.0\nsamples = 1\nvalue = [0, 1]"] ;
987 -> 988 ;
989 [label="gini = 0.0\nsamples = 2\nvalue = [2, 0]"] ;
987 -> 989 ;
990 [label="X[12] <= 4108.0\ngini = 0.444\nsamples = 6\nvalue = [2, 4]"] ;
930 -> 990 ;
991 [label="gini = 0.0\nsamples = 4\nvalue = [0, 4]"] ;
990 -> 991 ;
992 [label="gini = 0.0\nsamples = 2\nvalue = [2, 0]"] ;
990 -> 992 ;
993 [label="gini = 0.0\nsamples = 19\nvalue = [19, 0]"] ;
929 -> 993 ;
994 [label="X[0] <= 335000.0\ngini = 0.49\nsamples = 249\nvalue = [142, 107]"] ;
928 -> 994 ;
995 [label="X[20] <= 347.5\ngini = 0.476\nsamples = 210\nvalue = [128, 82]"] ;
994 -> 995 ;
996 [label="X[0] <= 155000.0\ngini = 0.498\nsamples = 134\nvalue = [71, 63]"] ;
995 -> 996 ;
997 [label="X[21] <= 384.0\ngini = 0.482\nsamples = 64\nvalue = [26, 38]"] ;
996 -> 997 ;
998 [label="X[7] <= -1.5\ngini = 0.499\nsamples = 52\nvalue = [25, 27]"] ;
997 -> 998 ;
999 [label="X[3] <= 1.5\ngini = 0.444\nsamples = 27\nvalue = [9, 18]"] ;
998 -> 999 ;
1000 [label="X[4] <= 52.0\ngini = 0.49\nsamples = 21\nvalue = [9, 12]"] ;
999 -> 1000 ;
1001 [label="X[4] <= 46.5\ngini = 0.444\nsamples = 9\nvalue = [6, 3]"] ;
1000 -> 1001 ;
1002 [label="gini = 0.0\nsamples = 1\nvalue = [0, 1]"] ;
1001 -> 1002 ;
1003 [label="X[0] <= 30000.0\ngini = 0.375\nsamples = 8\nvalue = [6, 2]"] ;
1001 -> 1003 ;
1004 [label="gini = 0.0\nsamples = 1\nvalue = [0, 1]"] ;
1003 -> 1004 ;
1005 [label="X[0] <= 70000.0\ngini = 0.245\nsamples = 7\nvalue = [6, 1]"] ;
1003 -> 1005 ;
1006 [label="X[0] <= 55000.0\ngini = 0.444\nsamples = 3\nvalue = [2, 1]"] ;
1005 -> 1006 ;
1007 [label="gini = 0.0\nsamples = 2\nvalue = [2, 0]"] ;
1006 -> 1007 ;
1008 [label="gini = 0.0\nsamples = 1\nvalue = [0, 1]"] ;
1006 -> 1008 ;
1009 [label="gini = 0.0\nsamples = 4\nvalue = [4, 0]"] ;
1005 -> 1009 ;
1010 [label="X[4] <= 58.0\ngini = 0.375\nsamples = 12\nvalue = [3, 9]"] ;
1000 -> 1010 ;
1011 [label="X[4] <= 53.5\ngini = 0.245\nsamples = 7\nvalue = [1, 6]"] ;
1010 -> 1011 ;
1012 [label="X[0] <= 75000.0\ngini = 0.444\nsamples = 3\nvalue = [1, 2]"] ;
1011 -> 1012 ;
1013 [label="gini = 0.0\nsamples = 1\nvalue = [0, 1]"] ;
1012 -> 1013 ;
1014 [label="gini = 0.5\nsamples = 2\nvalue = [1, 1]"] ;
1012 -> 1014 ;
1015 [label="gini = 0.0\nsamples = 4\nvalue = [0, 4]"] ;
1011 -> 1015 ;
1016 [label="X[4] <= 66.0\ngini = 0.48\nsamples = 5\nvalue = [2, 3]"] ;
1010 -> 1016 ;
1017 [label="X[0] <= 25000.0\ngini = 0.5\nsamples = 4\nvalue = [2, 2]"] ;
1016 -> 1017 ;
1018 [label="gini = 0.0\nsamples = 1\nvalue = [0, 1]"] ;
1017 -> 1018 ;
1019 [label="X[1] <= 1.5\ngini = 0.444\nsamples = 3\nvalue = [2, 1]"] ;
1017 -> 1019 ;
1020 [label="gini = 0.0\nsamples = 1\nvalue = [1, 0]"] ;
1019 -> 1020 ;
1021 [label="X[0] <= 90000.0\ngini = 0.5\nsamples = 2\nvalue = [1, 1]"] ;
1019 -> 1021 ;
1022 [label="gini = 0.0\nsamples = 1\nvalue = [1, 0]"] ;
1021 -> 1022 ;
1023 [label="gini = 0.0\nsamples = 1\nvalue = [0, 1]"] ;
1021 -> 1023 ;
1024 [label="gini = 0.0\nsamples = 1\nvalue = [0, 1]"] ;
1016 -> 1024 ;
1025 [label="gini = 0.0\nsamples = 6\nvalue = [0, 6]"] ;
999 -> 1025 ;
1026 [label="X[11] <= 303.5\ngini = 0.461\nsamples = 25\nvalue = [16, 9]"] ;
998 -> 1026 ;
1027 [label="X[0] <= 15000.0\ngini = 0.231\nsamples = 15\nvalue = [13, 2]"] ;
1026 -> 1027 ;
1028 [label="gini = 0.0\nsamples = 1\nvalue = [0, 1]"] ;
1027 -> 1028 ;
1029 [label="X[12] <= -312.0\ngini = 0.133\nsamples = 14\nvalue = [13, 1]"] ;
1027 -> 1029 ;
1030 [label="gini = 0.0\nsamples = 1\nvalue = [0, 1]"] ;
1029 -> 1030 ;
1031 [label="gini = 0.0\nsamples = 13\nvalue = [13, 0]"] ;
1029 -> 1031 ;
1032 [label="X[14] <= 706.0\ngini = 0.42\nsamples = 10\nvalue = [3, 7]"] ;
1026 -> 1032 ;
1033 [label="gini = 0.0\nsamples = 6\nvalue = [0, 6]"] ;
1032 -> 1033 ;
1034 [label="X[4] <= 47.5\ngini = 0.375\nsamples = 4\nvalue = [3, 1]"] ;
1032 -> 1034 ;
1035 [label="gini = 0.0\nsamples = 1\nvalue = [0, 1]"] ;
1034 -> 1035 ;
1036 [label="gini = 0.0\nsamples = 3\nvalue = [3, 0]"] ;
1034 -> 1036 ;
1037 [label="X[19] <= 640.0\ngini = 0.153\nsamples = 12\nvalue = [1, 11]"] ;
997 -> 1037 ;
1038 [label="gini = 0.0\nsamples = 10\nvalue = [0, 10]"] ;
1037 -> 1038 ;
1039 [label="X[1] <= 1.5\ngini = 0.5\nsamples = 2\nvalue = [1, 1]"] ;
1037 -> 1039 ;
1040 [label="gini = 0.0\nsamples = 1\nvalue = [1, 0]"] ;
1039 -> 1040 ;
1041 [label="gini = 0.0\nsamples = 1\nvalue = [0, 1]"] ;
1039 -> 1041 ;
1042 [label="X[4] <= 61.5\ngini = 0.459\nsamples = 70\nvalue = [45, 25]"] ;
996 -> 1042 ;
1043 [label="X[20] <= 303.5\ngini = 0.441\nsamples = 67\nvalue = [45, 22]"] ;
1042 -> 1043 ;
1044 [label="X[3] <= 1.5\ngini = 0.412\nsamples = 62\nvalue = [44, 18]"] ;
1043 -> 1044 ;
1045 [label="X[4] <= 55.5\ngini = 0.366\nsamples = 54\nvalue = [41, 13]"] ;
1044 -> 1045 ;
1046 [label="X[11] <= 143.5\ngini = 0.278\nsamples = 42\nvalue = [35, 7]"] ;
1045 -> 1046 ;
1047 [label="X[11] <= 45.0\ngini = 0.35\nsamples = 31\nvalue = [24, 7]"] ;
1046 -> 1047 ;
1048 [label="X[12] <= 2070.5\ngini = 0.285\nsamples = 29\nvalue = [24, 5]"] ;
1047 -> 1048 ;
1049 [label="X[8] <= -1.5\ngini = 0.245\nsamples = 28\nvalue = [24, 4]"] ;
1048 -> 1049 ;
1050 [label="X[0] <= 170000.0\ngini = 0.204\nsamples = 26\nvalue = [23, 3]"] ;
1049 -> 1050 ;
1051 [label="X[4] <= 47.5\ngini = 0.5\nsamples = 2\nvalue = [1, 1]"] ;
1050 -> 1051 ;
1052 [label="gini = 0.0\nsamples = 1\nvalue = [0, 1]"] ;
1051 -> 1052 ;
1053 [label="gini = 0.0\nsamples = 1\nvalue = [1, 0]"] ;
1051 -> 1053 ;
1054 [label="X[4] <= 52.5\ngini = 0.153\nsamples = 24\nvalue = [22, 2]"] ;
1050 -> 1054 ;
1055 [label="X[4] <= 48.5\ngini = 0.1\nsamples = 19\nvalue = [18, 1]"] ;
1054 -> 1055 ;
1056 [label="gini = 0.0\nsamples = 8\nvalue = [8, 0]"] ;
1055 -> 1056 ;
1057 [label="X[4] <= 49.5\ngini = 0.165\nsamples = 11\nvalue = [10, 1]"] ;
1055 -> 1057 ;
1058 [label="X[21] <= 3473.0\ngini = 0.375\nsamples = 4\nvalue = [3, 1]"] ;
1057 -> 1058 ;
1059 [label="gini = 0.444\nsamples = 3\nvalue = [2, 1]"] ;
1058 -> 1059 ;
1060 [label="gini = 0.0\nsamples = 1\nvalue = [1, 0]"] ;
1058 -> 1060 ;
1061 [label="gini = 0.0\nsamples = 7\nvalue = [7, 0]"] ;
1057 -> 1061 ;
1062 [label="X[4] <= 53.5\ngini = 0.32\nsamples = 5\nvalue = [4, 1]"] ;
1054 -> 1062 ;
1063 [label="gini = 0.0\nsamples = 1\nvalue = [0, 1]"] ;
1062 -> 1063 ;
1064 [label="gini = 0.0\nsamples = 4\nvalue = [4, 0]"] ;
1062 -> 1064 ;
1065 [label="X[8] <= 0.5\ngini = 0.5\nsamples = 2\nvalue = [1, 1]"] ;
1049 -> 1065 ;
1066 [label="gini = 0.0\nsamples = 1\nvalue = [0, 1]"] ;
1065 -> 1066 ;
1067 [label="gini = 0.0\nsamples = 1\nvalue = [1, 0]"] ;
1065 -> 1067 ;
1068 [label="gini = 0.0\nsamples = 1\nvalue = [0, 1]"] ;
1048 -> 1068 ;
1069 [label="gini = 0.0\nsamples = 2\nvalue = [0, 2]"] ;
1047 -> 1069 ;
1070 [label="gini = 0.0\nsamples = 11\nvalue = [11, 0]"] ;
1046 -> 1070 ;
1071 [label="X[18] <= 195.0\ngini = 0.5\nsamples = 12\nvalue = [6, 6]"] ;
1045 -> 1071 ;
1072 [label="X[10] <= -1.5\ngini = 0.408\nsamples = 7\nvalue = [2, 5]"] ;
1071 -> 1072 ;
1073 [label="X[0] <= 260000.0\ngini = 0.278\nsamples = 6\nvalue = [1, 5]"] ;
1072 -> 1073 ;
1074 [label="gini = 0.0\nsamples = 3\nvalue = [0, 3]"] ;
1073 -> 1074 ;
1075 [label="X[4] <= 58.5\ngini = 0.444\nsamples = 3\nvalue = [1, 2]"] ;
1073 -> 1075 ;
1076 [label="gini = 0.0\nsamples = 2\nvalue = [0, 2]"] ;
1075 -> 1076 ;
1077 [label="gini = 0.0\nsamples = 1\nvalue = [1, 0]"] ;
1075 -> 1077 ;
1078 [label="gini = 0.0\nsamples = 1\nvalue = [1, 0]"] ;
1072 -> 1078 ;
1079 [label="X[18] <= 3013.5\ngini = 0.32\nsamples = 5\nvalue = [4, 1]"] ;
1071 -> 1079 ;
1080 [label="gini = 0.0\nsamples = 4\nvalue = [4, 0]"] ;
1079 -> 1080 ;
1081 [label="gini = 0.0\nsamples = 1\nvalue = [0, 1]"] ;
1079 -> 1081 ;
1082 [label="X[0] <= 190000.0\ngini = 0.469\nsamples = 8\nvalue = [3, 5]"] ;
1044 -> 1082 ;
1083 [label="gini = 0.0\nsamples = 2\nvalue = [2, 0]"] ;
1082 -> 1083 ;
1084 [label="X[2] <= 1.5\ngini = 0.278\nsamples = 6\nvalue = [1, 5]"] ;
1082 -> 1084 ;
1085 [label="gini = 0.0\nsamples = 4\nvalue = [0, 4]"] ;
1084 -> 1085 ;
1086 [label="X[13] <= 1807.0\ngini = 0.5\nsamples = 2\nvalue = [1, 1]"] ;
1084 -> 1086 ;
1087 [label="gini = 0.0\nsamples = 1\nvalue = [1, 0]"] ;
1086 -> 1087 ;
1088 [label="gini = 0.0\nsamples = 1\nvalue = [0, 1]"] ;
1086 -> 1088 ;
1089 [label="X[0] <= 175000.0\ngini = 0.32\nsamples = 5\nvalue = [1, 4]"] ;
1043 -> 1089 ;
1090 [label="X[4] <= 50.0\ngini = 0.5\nsamples = 2\nvalue = [1, 1]"] ;
1089 -> 1090 ;
1091 [label="gini = 0.0\nsamples = 1\nvalue = [0, 1]"] ;
1090 -> 1091 ;
1092 [label="gini = 0.0\nsamples = 1\nvalue = [1, 0]"] ;
1090 -> 1092 ;
1093 [label="gini = 0.0\nsamples = 3\nvalue = [0, 3]"] ;
1089 -> 1093 ;
1094 [label="gini = 0.0\nsamples = 3\nvalue = [0, 3]"] ;
1042 -> 1094 ;
1095 [label="X[18] <= 391.0\ngini = 0.375\nsamples = 76\nvalue = [57, 19]"] ;
995 -> 1095 ;
1096 [label="X[22] <= 1689.0\ngini = 0.475\nsamples = 36\nvalue = [22, 14]"] ;
1095 -> 1096 ;
1097 [label="X[8] <= -1.5\ngini = 0.5\nsamples = 28\nvalue = [14, 14]"] ;
1096 -> 1097 ;
1098 [label="X[21] <= 443.0\ngini = 0.278\nsamples = 6\nvalue = [5, 1]"] ;
1097 -> 1098 ;
1099 [label="gini = 0.0\nsamples = 5\nvalue = [5, 0]"] ;
1098 -> 1099 ;
1100 [label="gini = 0.0\nsamples = 1\nvalue = [0, 1]"] ;
1098 -> 1100 ;
1101 [label="X[0] <= 205000.0\ngini = 0.483\nsamples = 22\nvalue = [9, 13]"] ;
1097 -> 1101 ;
1102 [label="X[16] <= 158.0\ngini = 0.5\nsamples = 18\nvalue = [9, 9]"] ;
1101 -> 1102 ;
1103 [label="gini = 0.0\nsamples = 3\nvalue = [0, 3]"] ;
1102 -> 1103 ;
1104 [label="X[0] <= 90000.0\ngini = 0.48\nsamples = 15\nvalue = [9, 6]"] ;
1102 -> 1104 ;
1105 [label="X[3] <= 1.5\ngini = 0.375\nsamples = 4\nvalue = [1, 3]"] ;
1104 -> 1105 ;
1106 [label="gini = 0.0\nsamples = 3\nvalue = [0, 3]"] ;
1105 -> 1106 ;
1107 [label="gini = 0.0\nsamples = 1\nvalue = [1, 0]"] ;
1105 -> 1107 ;
1108 [label="X[15] <= 853.0\ngini = 0.397\nsamples = 11\nvalue = [8, 3]"] ;
1104 -> 1108 ;
1109 [label="gini = 0.0\nsamples = 6\nvalue = [6, 0]"] ;
1108 -> 1109 ;
1110 [label="X[0] <= 110000.0\ngini = 0.48\nsamples = 5\nvalue = [2, 3]"] ;
1108 -> 1110 ;
1111 [label="gini = 0.0\nsamples = 2\nvalue = [2, 0]"] ;
1110 -> 1111 ;
1112 [label="gini = 0.0\nsamples = 3\nvalue = [0, 3]"] ;
1110 -> 1112 ;
1113 [label="gini = 0.0\nsamples = 4\nvalue = [0, 4]"] ;
1101 -> 1113 ;
1114 [label="gini = 0.0\nsamples = 8\nvalue = [8, 0]"] ;
1096 -> 1114 ;
1115 [label="X[4] <= 47.5\ngini = 0.219\nsamples = 40\nvalue = [35, 5]"] ;
1095 -> 1115 ;
1116 [label="X[18] <= 1264.0\ngini = 0.5\nsamples = 6\nvalue = [3, 3]"] ;
1115 -> 1116 ;
1117 [label="gini = 0.0\nsamples = 3\nvalue = [0, 3]"] ;
1116 -> 1117 ;
1118 [label="gini = 0.0\nsamples = 3\nvalue = [3, 0]"] ;
1116 -> 1118 ;
1119 [label="X[11] <= -3888.0\ngini = 0.111\nsamples = 34\nvalue = [32, 2]"] ;
1115 -> 1119 ;
1120 [label="gini = 0.0\nsamples = 1\nvalue = [0, 1]"] ;
1119 -> 1120 ;
1121 [label="X[18] <= 440.5\ngini = 0.059\nsamples = 33\nvalue = [32, 1]"] ;
1119 -> 1121 ;
1122 [label="X[13] <= 437.5\ngini = 0.32\nsamples = 5\nvalue = [4, 1]"] ;
1121 -> 1122 ;
1123 [label="gini = 0.0\nsamples = 4\nvalue = [4, 0]"] ;
1122 -> 1123 ;
1124 [label="gini = 0.0\nsamples = 1\nvalue = [0, 1]"] ;
1122 -> 1124 ;
1125 [label="gini = 0.0\nsamples = 28\nvalue = [28, 0]"] ;
1121 -> 1125 ;
1126 [label="X[4] <= 53.0\ngini = 0.46\nsamples = 39\nvalue = [14, 25]"] ;
994 -> 1126 ;
1127 [label="X[8] <= -1.5\ngini = 0.499\nsamples = 25\nvalue = [13, 12]"] ;
1126 -> 1127 ;
1128 [label="X[0] <= 385000.0\ngini = 0.391\nsamples = 15\nvalue = [11, 4]"] ;
1127 -> 1128 ;
1129 [label="X[2] <= 1.5\ngini = 0.48\nsamples = 10\nvalue = [6, 4]"] ;
1128 -> 1129 ;
1130 [label="X[0] <= 370000.0\ngini = 0.375\nsamples = 8\nvalue = [6, 2]"] ;
1129 -> 1130 ;
1131 [label="X[4] <= 50.5\ngini = 0.444\nsamples = 6\nvalue = [4, 2]"] ;
1130 -> 1131 ;
1132 [label="X[3] <= 1.5\ngini = 0.32\nsamples = 5\nvalue = [4, 1]"] ;
1131 -> 1132 ;
1133 [label="gini = 0.0\nsamples = 3\nvalue = [3, 0]"] ;
1132 -> 1133 ;
1134 [label="X[1] <= 1.5\ngini = 0.5\nsamples = 2\nvalue = [1, 1]"] ;
1132 -> 1134 ;
1135 [label="gini = 0.0\nsamples = 1\nvalue = [1, 0]"] ;
1134 -> 1135 ;
1136 [label="gini = 0.0\nsamples = 1\nvalue = [0, 1]"] ;
1134 -> 1136 ;
1137 [label="gini = 0.0\nsamples = 1\nvalue = [0, 1]"] ;
1131 -> 1137 ;
1138 [label="gini = 0.0\nsamples = 2\nvalue = [2, 0]"] ;
1130 -> 1138 ;
1139 [label="gini = 0.0\nsamples = 2\nvalue = [0, 2]"] ;
1129 -> 1139 ;
1140 [label="gini = 0.0\nsamples = 5\nvalue = [5, 0]"] ;
1128 -> 1140 ;
1141 [label="X[19] <= 161.0\ngini = 0.32\nsamples = 10\nvalue = [2, 8]"] ;
1127 -> 1141 ;
1142 [label="gini = 0.0\nsamples = 7\nvalue = [0, 7]"] ;
1141 -> 1142 ;
1143 [label="X[18] <= 588.0\ngini = 0.444\nsamples = 3\nvalue = [2, 1]"] ;
1141 -> 1143 ;
1144 [label="gini = 0.0\nsamples = 1\nvalue = [0, 1]"] ;
1143 -> 1144 ;
1145 [label="gini = 0.0\nsamples = 2\nvalue = [2, 0]"] ;
1143 -> 1145 ;
1146 [label="X[19] <= 674.5\ngini = 0.133\nsamples = 14\nvalue = [1, 13]"] ;
1126 -> 1146 ;
1147 [label="gini = 0.0\nsamples = 13\nvalue = [0, 13]"] ;
1146 -> 1147 ;
1148 [label="gini = 0.0\nsamples = 1\nvalue = [1, 0]"] ;
1146 -> 1148 ;
1149 [label="X[7] <= 1.5\ngini = 0.282\nsamples = 2939\nvalue = [2439, 500]"] ;
3 -> 1149 ;
1150 [label="X[9] <= 1.0\ngini = 0.264\nsamples = 2725\nvalue = [2298, 427]"] ;
1149 -> 1150 ;
1151 [label="X[0] <= 175000.0\ngini = 0.254\nsamples = 2609\nvalue = [2220, 389]"] ;
1150 -> 1151 ;
1152 [label="X[11] <= 12985.5\ngini = 0.286\nsamples = 1601\nvalue = [1324, 277]"] ;
1151 -> 1152 ;
1153 [label="X[13] <= 54909.5\ngini = 0.326\nsamples = 706\nvalue = [561, 145]"] ;
1152 -> 1153 ;
1154 [label="X[21] <= 785.0\ngini = 0.324\nsamples = 704\nvalue = [561, 143]"] ;
1153 -> 1154 ;
1155 [label="X[8] <= 1.0\ngini = 0.357\nsamples = 499\nvalue = [383, 116]"] ;
1154 -> 1155 ;
1156 [label="X[13] <= 27047.0\ngini = 0.345\nsamples = 474\nvalue = [369, 105]"] ;
1155 -> 1156 ;
1157 [label="X[16] <= 15738.0\ngini = 0.34\nsamples = 470\nvalue = [368, 102]"] ;
1156 -> 1157 ;
1158 [label="X[11] <= 12528.0\ngini = 0.335\nsamples = 466\nvalue = [367, 99]"] ;
1157 -> 1158 ;
1159 [label="X[3] <= 1.5\ngini = 0.328\nsamples = 459\nvalue = [364, 95]"] ;
1158 -> 1159 ;
1160 [label="X[2] <= 2.5\ngini = 0.379\nsamples = 177\nvalue = [132, 45]"] ;
1159 -> 1160 ;
1161 [label="X[17] <= 1119.5\ngini = 0.424\nsamples = 128\nvalue = [89, 39]"] ;
1160 -> 1161 ;
1162 [label="X[17] <= 1069.5\ngini = 0.475\nsamples = 67\nvalue = [41, 26]"] ;
1161 -> 1162 ;
1163 [label="X[15] <= 876.0\ngini = 0.46\nsamples = 64\nvalue = [41, 23]"] ;
1162 -> 1163 ;
1164 [label="X[20] <= 791.0\ngini = 0.484\nsamples = 56\nvalue = [33, 23]"] ;
1163 -> 1164 ;
1165 [label="X[1] <= 1.5\ngini = 0.464\nsamples = 52\nvalue = [33, 19]"] ;
1164 -> 1165 ;
1166 [label="X[19] <= 324.0\ngini = 0.484\nsamples = 17\nvalue = [7, 10]"] ;
1165 -> 1166 ;
1167 [label="X[4] <= 57.5\ngini = 0.298\nsamples = 11\nvalue = [2, 9]"] ;
1166 -> 1167 ;
1168 [label="X[0] <= 90000.0\ngini = 0.18\nsamples = 10\nvalue = [1, 9]"] ;
1167 -> 1168 ;
1169 [label="gini = 0.0\nsamples = 7\nvalue = [0, 7]"] ;
1168 -> 1169 ;
1170 [label="X[0] <= 130000.0\ngini = 0.444\nsamples = 3\nvalue = [1, 2]"] ;
1168 -> 1170 ;
1171 [label="gini = 0.0\nsamples = 1\nvalue = [1, 0]"] ;
1170 -> 1171 ;
1172 [label="gini = 0.0\nsamples = 2\nvalue = [0, 2]"] ;
1170 -> 1172 ;
1173 [label="gini = 0.0\nsamples = 1\nvalue = [1, 0]"] ;
1167 -> 1173 ;
1174 [label="X[18] <= 679.0\ngini = 0.278\nsamples = 6\nvalue = [5, 1]"] ;
1166 -> 1174 ;
1175 [label="gini = 0.0\nsamples = 5\nvalue = [5, 0]"] ;
1174 -> 1175 ;
1176 [label="gini = 0.0\nsamples = 1\nvalue = [0, 1]"] ;
1174 -> 1176 ;
1177 [label="X[10] <= -1.5\ngini = 0.382\nsamples = 35\nvalue = [26, 9]"] ;
1165 -> 1177 ;
1178 [label="X[4] <= 34.5\ngini = 0.285\nsamples = 29\nvalue = [24, 5]"] ;
1177 -> 1178 ;
1179 [label="X[0] <= 65000.0\ngini = 0.444\nsamples = 12\nvalue = [8, 4]"] ;
1178 -> 1179 ;
1180 [label="gini = 0.0\nsamples = 1\nvalue = [0, 1]"] ;
1179 -> 1180 ;
1181 [label="X[11] <= 3422.0\ngini = 0.397\nsamples = 11\nvalue = [8, 3]"] ;
1179 -> 1181 ;
1182 [label="gini = 0.0\nsamples = 4\nvalue = [4, 0]"] ;
1181 -> 1182 ;
1183 [label="X[5] <= -0.5\ngini = 0.49\nsamples = 7\nvalue = [4, 3]"] ;
1181 -> 1183 ;
1184 [label="X[0] <= 90000.0\ngini = 0.375\nsamples = 4\nvalue = [1, 3]"] ;
1183 -> 1184 ;
1185 [label="gini = 0.0\nsamples = 1\nvalue = [1, 0]"] ;
1184 -> 1185 ;
1186 [label="gini = 0.0\nsamples = 3\nvalue = [0, 3]"] ;
1184 -> 1186 ;
1187 [label="gini = 0.0\nsamples = 3\nvalue = [3, 0]"] ;
1183 -> 1187 ;
1188 [label="X[17] <= 1003.5\ngini = 0.111\nsamples = 17\nvalue = [16, 1]"] ;
1178 -> 1188 ;
1189 [label="gini = 0.0\nsamples = 15\nvalue = [15, 0]"] ;
1188 -> 1189 ;
1190 [label="X[11] <= 7805.5\ngini = 0.5\nsamples = 2\nvalue = [1, 1]"] ;
1188 -> 1190 ;
1191 [label="gini = 0.0\nsamples = 1\nvalue = [0, 1]"] ;
1190 -> 1191 ;
1192 [label="gini = 0.0\nsamples = 1\nvalue = [1, 0]"] ;
1190 -> 1192 ;
1193 [label="X[4] <= 42.5\ngini = 0.444\nsamples = 6\nvalue = [2, 4]"] ;
1177 -> 1193 ;
1194 [label="gini = 0.0\nsamples = 4\nvalue = [0, 4]"] ;
1193 -> 1194 ;
1195 [label="gini = 0.0\nsamples = 2\nvalue = [2, 0]"] ;
1193 -> 1195 ;
1196 [label="gini = 0.0\nsamples = 4\nvalue = [0, 4]"] ;
1164 -> 1196 ;
1197 [label="gini = 0.0\nsamples = 8\nvalue = [8, 0]"] ;
1163 -> 1197 ;
1198 [label="gini = 0.0\nsamples = 3\nvalue = [0, 3]"] ;
1162 -> 1198 ;
1199 [label="X[0] <= 95000.0\ngini = 0.335\nsamples = 61\nvalue = [48, 13]"] ;
1161 -> 1199 ;
1200 [label="X[19] <= 496.5\ngini = 0.214\nsamples = 41\nvalue = [36, 5]"] ;
1199 -> 1200 ;
1201 [label="X[17] <= 1204.0\ngini = 0.108\nsamples = 35\nvalue = [33, 2]"] ;
1200 -> 1201 ;
1202 [label="X[0] <= 65000.0\ngini = 0.346\nsamples = 9\nvalue = [7, 2]"] ;
1201 -> 1202 ;
1203 [label="gini = 0.0\nsamples = 6\nvalue = [6, 0]"] ;
1202 -> 1203 ;
1204 [label="X[22] <= 138.0\ngini = 0.444\nsamples = 3\nvalue = [1, 2]"] ;
1202 -> 1204 ;
1205 [label="gini = 0.0\nsamples = 1\nvalue = [1, 0]"] ;
1204 -> 1205 ;
1206 [label="gini = 0.0\nsamples = 2\nvalue = [0, 2]"] ;
1204 -> 1206 ;
1207 [label="gini = 0.0\nsamples = 26\nvalue = [26, 0]"] ;
1201 -> 1207 ;
1208 [label="X[0] <= 25000.0\ngini = 0.5\nsamples = 6\nvalue = [3, 3]"] ;
1200 -> 1208 ;
1209 [label="gini = 0.0\nsamples = 2\nvalue = [0, 2]"] ;
1208 -> 1209 ;
1210 [label="X[18] <= 1400.0\ngini = 0.375\nsamples = 4\nvalue = [3, 1]"] ;
1208 -> 1210 ;
1211 [label="gini = 0.0\nsamples = 1\nvalue = [0, 1]"] ;
1210 -> 1211 ;
1212 [label="gini = 0.0\nsamples = 3\nvalue = [3, 0]"] ;
1210 -> 1212 ;
1213 [label="X[21] <= 34.5\ngini = 0.48\nsamples = 20\nvalue = [12, 8]"] ;
1199 -> 1213 ;
1214 [label="X[4] <= 39.5\ngini = 0.49\nsamples = 14\nvalue = [6, 8]"] ;
1213 -> 1214 ;
1215 [label="X[17] <= 6743.0\ngini = 0.219\nsamples = 8\nvalue = [1, 7]"] ;
1214 -> 1215 ;
1216 [label="gini = 0.0\nsamples = 7\nvalue = [0, 7]"] ;
1215 -> 1216 ;
1217 [label="gini = 0.0\nsamples = 1\nvalue = [1, 0]"] ;
1215 -> 1217 ;
1218 [label="X[19] <= 195.0\ngini = 0.278\nsamples = 6\nvalue = [5, 1]"] ;
1214 -> 1218 ;
1219 [label="gini = 0.0\nsamples = 5\nvalue = [5, 0]"] ;
1218 -> 1219 ;
1220 [label="gini = 0.0\nsamples = 1\nvalue = [0, 1]"] ;
1218 -> 1220 ;
1221 [label="gini = 0.0\nsamples = 6\nvalue = [6, 0]"] ;
1213 -> 1221 ;
1222 [label="X[4] <= 49.5\ngini = 0.215\nsamples = 49\nvalue = [43, 6]"] ;
1160 -> 1222 ;
1223 [label="X[16] <= 9459.5\ngini = 0.1\nsamples = 38\nvalue = [36, 2]"] ;
1222 -> 1223 ;
1224 [label="X[21] <= 771.0\ngini = 0.053\nsamples = 37\nvalue = [36, 1]"] ;
1223 -> 1224 ;
1225 [label="gini = 0.0\nsamples = 36\nvalue = [36, 0]"] ;
1224 -> 1225 ;
1226 [label="gini = 0.0\nsamples = 1\nvalue = [0, 1]"] ;
1224 -> 1226 ;
1227 [label="gini = 0.0\nsamples = 1\nvalue = [0, 1]"] ;
1223 -> 1227 ;
1228 [label="X[11] <= 5879.5\ngini = 0.463\nsamples = 11\nvalue = [7, 4]"] ;
1222 -> 1228 ;
1229 [label="X[12] <= 343.5\ngini = 0.444\nsamples = 6\nvalue = [2, 4]"] ;
1228 -> 1229 ;
1230 [label="gini = 0.0\nsamples = 3\nvalue = [0, 3]"] ;
1229 -> 1230 ;
1231 [label="X[4] <= 51.0\ngini = 0.444\nsamples = 3\nvalue = [2, 1]"] ;
1229 -> 1231 ;
1232 [label="gini = 0.0\nsamples = 1\nvalue = [0, 1]"] ;
1231 -> 1232 ;
1233 [label="gini = 0.0\nsamples = 2\nvalue = [2, 0]"] ;
1231 -> 1233 ;
1234 [label="gini = 0.0\nsamples = 5\nvalue = [5, 0]"] ;
1228 -> 1234 ;
1235 [label="X[5] <= 0.5\ngini = 0.292\nsamples = 282\nvalue = [232, 50]"] ;
1159 -> 1235 ;
1236 [label="X[15] <= 9112.5\ngini = 0.285\nsamples = 279\nvalue = [231, 48]"] ;
1235 -> 1236 ;
1237 [label="X[11] <= 3170.5\ngini = 0.258\nsamples = 237\nvalue = [201, 36]"] ;
1236 -> 1237 ;
1238 [label="X[11] <= 2845.5\ngini = 0.331\nsamples = 105\nvalue = [83, 22]"] ;
1237 -> 1238 ;
1239 [label="X[2] <= 1.5\ngini = 0.278\nsamples = 96\nvalue = [80, 16]"] ;
1238 -> 1239 ;
1240 [label="X[18] <= 293.0\ngini = 0.169\nsamples = 43\nvalue = [39, 4]"] ;
1239 -> 1240 ;
1241 [label="X[13] <= 170.0\ngini = 0.26\nsamples = 26\nvalue = [22, 4]"] ;
1240 -> 1241 ;
1242 [label="X[12] <= 14897.0\ngini = 0.211\nsamples = 25\nvalue = [22, 3]"] ;
1241 -> 1242 ;
1243 [label="X[4] <= 36.5\ngini = 0.159\nsamples = 23\nvalue = [21, 2]"] ;
1242 -> 1243 ;
1244 [label="X[11] <= 967.0\ngini = 0.091\nsamples = 21\nvalue = [20, 1]"] ;
1243 -> 1244 ;
1245 [label="X[11] <= 913.5\ngini = 0.5\nsamples = 2\nvalue = [1, 1]"] ;
1244 -> 1245 ;
1246 [label="gini = 0.0\nsamples = 1\nvalue = [1, 0]"] ;
1245 -> 1246 ;
1247 [label="gini = 0.0\nsamples = 1\nvalue = [0, 1]"] ;
1245 -> 1247 ;
1248 [label="gini = 0.0\nsamples = 19\nvalue = [19, 0]"] ;
1244 -> 1248 ;
1249 [label="X[16] <= 199.5\ngini = 0.5\nsamples = 2\nvalue = [1, 1]"] ;
1243 -> 1249 ;
1250 [label="gini = 0.0\nsamples = 1\nvalue = [0, 1]"] ;
1249 -> 1250 ;
1251 [label="gini = 0.0\nsamples = 1\nvalue = [1, 0]"] ;
1249 -> 1251 ;
1252 [label="X[0] <= 110000.0\ngini = 0.5\nsamples = 2\nvalue = [1, 1]"] ;
1242 -> 1252 ;
1253 [label="gini = 0.0\nsamples = 1\nvalue = [0, 1]"] ;
1252 -> 1253 ;
1254 [label="gini = 0.0\nsamples = 1\nvalue = [1, 0]"] ;
1252 -> 1254 ;
1255 [label="gini = 0.0\nsamples = 1\nvalue = [0, 1]"] ;
1241 -> 1255 ;
1256 [label="gini = 0.0\nsamples = 17\nvalue = [17, 0]"] ;
1240 -> 1256 ;
1257 [label="X[13] <= 5094.5\ngini = 0.35\nsamples = 53\nvalue = [41, 12]"] ;
1239 -> 1257 ;
1258 [label="X[18] <= 1900.5\ngini = 0.402\nsamples = 43\nvalue = [31, 12]"] ;
1257 -> 1258 ;
1259 [label="X[4] <= 25.5\ngini = 0.369\nsamples = 41\nvalue = [31, 10]"] ;
1258 -> 1259 ;
1260 [label="X[1] <= 1.5\ngini = 0.497\nsamples = 13\nvalue = [7, 6]"] ;
1259 -> 1260 ;
1261 [label="X[13] <= 195.0\ngini = 0.245\nsamples = 7\nvalue = [6, 1]"] ;
1260 -> 1261 ;
1262 [label="gini = 0.0\nsamples = 4\nvalue = [4, 0]"] ;
1261 -> 1262 ;
1263 [label="X[21] <= 610.5\ngini = 0.444\nsamples = 3\nvalue = [2, 1]"] ;
1261 -> 1263 ;
1264 [label="gini = 0.0\nsamples = 2\nvalue = [2, 0]"] ;
1263 -> 1264 ;
1265 [label="gini = 0.0\nsamples = 1\nvalue = [0, 1]"] ;
1263 -> 1265 ;
